{"learner":{"attributes":{"best_iteration":"239","best_ntree_limit":"240","scikit_learn":"{\"n_estimators\": 240, \"objective\": \"reg:squarederror\", \"max_depth\": 3, \"max_leaves\": null, \"max_bin\": null, \"grow_policy\": null, \"learning_rate\": 0.03, \"verbosity\": null, \"booster\": null, \"tree_method\": null, \"gamma\": null, \"min_child_weight\": null, \"max_delta_step\": null, \"subsample\": 0.6, \"sampling_method\": null, \"colsample_bytree\": 0.75, \"colsample_bylevel\": 0.75, \"colsample_bynode\": null, \"reg_alpha\": 0, \"reg_lambda\": 0, \"scale_pos_weight\": null, \"base_score\": null, \"missing\": NaN, \"num_parallel_tree\": null, \"random_state\": null, \"n_jobs\": null, \"monotone_constraints\": null, \"interaction_constraints\": null, \"importance_type\": null, \"gpu_id\": null, \"validate_parameters\": null, \"predictor\": null, \"enable_categorical\": false, \"max_cat_to_onehot\": null, \"eval_metric\": null, \"early_stopping_rounds\": null, \"callbacks\": null, \"kwargs\": {\"seed\": 20}, \"_estimator_type\": \"regressor\"}"},"feature_names":["duration","playerCount","teamCount","weekday","hour","squad_ordinal","map_fortkeep","map_rebirth","time_slot","playerStats.rank_mean","playerStats.rank_std","playerStats.rank_median","playerStats.kdRatio_mean","playerStats.kdRatio_std","playerStats.kdRatio_median","playerStats.kills_mean","playerStats.kills_std","playerStats.kills_median","playerStats.deaths_mean","playerStats.deaths_std","playerStats.deaths_median","playerStats.assists_mean","playerStats.assists_std","playerStats.assists_median","playerStats.damageDone_mean","playerStats.damageDone_std","playerStats.damageDone_median","playerStats.damageTaken_mean","playerStats.damageTaken_std","playerStats.damageTaken_median","playerStats.kills_by_timePlayed_mean","playerStats.kills_by_timePlayed_std","playerStats.kills_by_timePlayed_median","playerStats.deaths_by_timePlayed_mean","playerStats.deaths_by_timePlayed_std","playerStats.deaths_by_timePlayed_median","playerStats.damageDone_by_timePlayed_mean","playerStats.damageDone_by_timePlayed_std","playerStats.damageDone_by_timePlayed_median","playerStats.damageTaken_by_timePlayed_mean","playerStats.damageTaken_by_timePlayed_std","playerStats.damageTaken_by_timePlayed_median","playerStats.damageDone_by_kill_mean","playerStats.damageDone_by_kill_std","playerStats.damageDone_by_kill_median","playerStats.scorePerMinute_mean","playerStats.scorePerMinute_std","playerStats.scorePerMinute_median","playerStats.teamSurvivalTime_mean","playerStats.teamSurvivalTime_std","playerStats.teamSurvivalTime_median","playerStats.timePlayed_mean","playerStats.timePlayed_std","playerStats.timePlayed_median","playerStats.percentTimeMoving_mean","playerStats.percentTimeMoving_std","playerStats.percentTimeMoving_median","player.awards.streak_5_mean","player.awards.streak_5_std","player.awards.streak_5_median","player.awards.double_mean","player.awards.double_std","player.awards.double_median","playerStats.headshots_mean","playerStats.headshots_std","playerStats.headshots_median","player.brMissionStats.missionsComplete_mean","player.brMissionStats.missionsComplete_std","player.brMissionStats.missionsComplete_median","playerStats.headshots_by_kill_mean","playerStats.headshots_by_kill_std","playerStats.headshots_by_kill_median","pct_players_0_kills","pct_players_5_kills","pct_players_10_kills","pct_players_with_streak_5","pct_players_with_double","pct_players_with_headshots"],"feature_types":["float","float","float","int","int","int","float","float","int","float","float","float","float","float","float","float","float","float","float","float","float","float","float","float","float","float","float","float","float","float","float","float","float","float","float","float","float","float","float","float","float","float","float","float","float","float","float","float","float","float","float","float","float","float","float","float","float","float","float","float","float","float","float","float","float","float","float","float","float","float","float","float","int","int","int","float","float","float"],"gradient_booster":{"model":{"gbtree_model_param":{"num_parallel_tree":"1","num_trees":"240","size_leaf_vector":"0"},"tree_info":[0,0,0,0,0,0,0,0,0,0,0,0,0,0,0,0,0,0,0,0,0,0,0,0,0,0,0,0,0,0,0,0,0,0,0,0,0,0,0,0,0,0,0,0,0,0,0,0,0,0,0,0,0,0,0,0,0,0,0,0,0,0,0,0,0,0,0,0,0,0,0,0,0,0,0,0,0,0,0,0,0,0,0,0,0,0,0,0,0,0,0,0,0,0,0,0,0,0,0,0,0,0,0,0,0,0,0,0,0,0,0,0,0,0,0,0,0,0,0,0,0,0,0,0,0,0,0,0,0,0,0,0,0,0,0,0,0,0,0,0,0,0,0,0,0,0,0,0,0,0,0,0,0,0,0,0,0,0,0,0,0,0,0,0,0,0,0,0,0,0,0,0,0,0,0,0,0,0,0,0,0,0,0,0,0,0,0,0,0,0,0,0,0,0,0,0,0,0,0,0,0,0,0,0,0,0,0,0,0,0,0,0,0,0,0,0,0,0,0,0,0,0,0,0,0,0,0,0,0,0,0,0,0,0,0,0,0,0,0,0],"trees":[{"base_weights":[6.372911E-1,5.934946E-1,6.878882E-1,6.2009174E-1,5.558441E-1,6.71E-1,7.7557695E-1,5.4E-1,6.295385E-1,6.166667E-1,5.3073394E-1,6.6371095E-1,8.042857E-1,1.095E0,7.628E-1],"categories":[],"categories_nodes":[],"categories_segments":[],"categories_sizes":[],"default_left":[1,1,1,1,1,1,1,0,0,0,0,0,0,0,0],"id":0,"left_children":[1,3,5,7,9,11,13,-1,-1,-1,-1,-1,-1,-1,-1],"loss_changes":[1.5379028E0,3.7252808E-1,4.7685242E-1,1.6493988E-1,2.3520279E-1,2.6231384E-1,2.1222496E-1,0E0,0E0,0E0,0E0,0E0,0E0,0E0,0E0],"parents":[2147483647,0,0,1,1,2,2,3,3,4,4,5,5,6,6],"right_children":[2,4,6,8,10,12,14,-1,-1,-1,-1,-1,-1,-1,-1],"split_conditions":[1.720232E0,4.74462E5,2.0509994E0,5.2636818E1,5.081264E-1,3.1647425E0,1.5685123E2,1.62E-2,1.8886155E-2,1.85E-2,1.5922017E-2,1.9911328E-2,2.4128571E-2,3.285E-2,2.2883998E-2],"split_indices":[37,57,41,9,10,36,52,0,0,0,0,0,0,0,0],"split_type":[0,0,0,0,0,0,0,0,0,0,0,0,0,0,0],"sum_hessian":[6.94E2,3.72E2,3.22E2,2.18E2,1.54E2,2.7E2,5.2E1,2.3E1,1.95E2,4.5E1,1.09E2,2.56E2,1.4E1,2E0,5E1],"tree_param":{"num_deleted":"0","num_feature":"78","num_nodes":"15","size_leaf_vector":"0"}},{"base_weights":[6.1587626E-1,5.780931E-1,6.651906E-1,5.6862074E-1,6.404677E-1,6.4935315E-1,7.577516E-1,5.845244E-1,5.2670795E-1,5.0269246E-1,6.517146E-1,5.041081E-1,6.569059E-1,1.0467124E0,7.371115E-1],"categories":[],"categories_nodes":[],"categories_segments":[],"categories_sizes":[],"default_left":[1,1,1,1,0,1,1,0,0,0,0,0,0,0,0],"id":1,"left_children":[1,3,5,7,9,11,13,-1,-1,-1,-1,-1,-1,-1,-1],"loss_changes":[1.3229065E0,2.3751831E-1,4.5150757E-1,2.326355E-1,8.212662E-2,2.8851318E-1,2.6838875E-1,0E0,0E0,0E0,0E0,0E0,0E0,0E0,0E0],"parents":[2147483647,0,0,1,1,2,2,3,3,4,4,5,5,6,6],"right_children":[2,4,6,8,10,12,14,-1,-1,-1,-1,-1,-1,-1,-1],"split_conditions":[4.1616E-3,2.9154358E0,3.155993E0,5.544592E5,1.0660377E-1,5.5E0,1.2290145E5,1.7535731E-2,1.5801238E-2,1.5080773E-2,1.9551437E-2,1.5123242E-2,1.9707177E-2,3.140137E-2,2.2113346E-2],"split_indices":[31,36,36,48,66,72,58,0,0,0,0,0,0,0,0],"split_type":[0,0,0,0,0,0,0,0,0,0,0,0,0,0,0],"sum_hessian":[7.1E2,4.02E2,3.08E2,3.49E2,5.3E1,2.63E2,4.5E1,2.53E2,9.6E1,4E0,4.9E1,1.3E1,2.5E2,3E0,4.2E1],"tree_param":{"num_deleted":"0","num_feature":"78","num_nodes":"15","size_leaf_vector":"0"}},{"base_weights":[6.065722E-1,5.646811E-1,6.519435E-1,5.2983594E-1,6.0328203E-1,6.354735E-1,7.692922E-1,4.3979177E-1,5.4522324E-1,5.985415E-1,8.6243075E-1,1.1203814E0,6.3376606E-1,6.2219155E-1,8.0606735E-1],"categories":[],"categories_nodes":[],"categories_segments":[],"categories_sizes":[],"default_left":[1,1,1,1,1,1,1,0,0,0,0,0,0,0,0],"id":2,"left_children":[1,3,5,7,9,11,13,-1,-1,-1,-1,-1,-1,-1,-1],"loss_changes":[1.2867432E0,4.7346497E-1,6.281433E-1,2.5632858E-1,2.0515823E-1,2.3596191E-1,2.163868E-1,0E0,0E0,0E0,0E0,0E0,0E0,0E0,0E0],"parents":[2147483647,0,0,1,1,2,2,3,3,4,4,5,5,6,6],"right_children":[2,4,6,8,10,12,14,-1,-1,-1,-1,-1,-1,-1,-1],"split_conditions":[1.7269919E0,5.293702E-3,3.1560924E0,1.3378577E0,5.5E0,2.4860355E5,4.5E0,1.3193753E-2,1.6356697E-2,1.7956244E-2,2.5872922E-2,3.361144E-2,1.9012982E-2,1.8665746E-2,2.418202E-2],"split_indices":[37,33,36,37,74,48,72,0,0,0,0,0,0,0,0],"split_type":[0,0,0,0,0,0,0,0,0,0,0,0,0,0,0],"sum_hessian":[6.77E2,3.52E2,3.25E2,1.85E2,1.67E2,2.85E2,4E1,2.7E1,1.58E2,1.64E2,3E0,1E0,2.84E2,8E0,3.2E1],"tree_param":{"num_deleted":"0","num_feature":"78","num_nodes":"15","size_leaf_vector":"0"}},{"base_weights":[5.838225E-1,5.420752E-1,6.2928617E-1,5.7710135E-1,5.1184964E-1,6.110039E-1,7.087997E-1,3.5733533E-1,5.823969E-1,4.9435368E-1,6.322219E-1,5.8070594E-1,6.387593E-1,1.0065665E0,6.9903684E-1],"categories":[],"categories_nodes":[],"categories_segments":[],"categories_sizes":[],"default_left":[1,1,1,1,1,1,1,0,0,0,0,0,0,0,0],"id":3,"left_children":[1,3,5,7,9,11,13,-1,-1,-1,-1,-1,-1,-1,-1],"loss_changes":[1.3361664E0,3.8854218E-1,4.8989868E-1,1.9784164E-1,4.1488647E-1,2.3042297E-1,1.8314362E-1,0E0,0E0,0E0,0E0,0E0,0E0,0E0,0E0],"parents":[2147483647,0,0,1,1,2,2,3,3,4,4,5,5,6,6],"right_children":[2,4,6,8,10,12,14,-1,-1,-1,-1,-1,-1,-1,-1],"split_conditions":[1.7222581E0,5.781625E2,2.0279307E0,2.1079156E2,2.9764702E0,6.0922587E-1,1.5685123E2,1.0720059E-2,1.7471908E-2,1.483061E-2,1.8966656E-2,1.7421179E-2,1.916278E-2,3.0196995E-2,2.0971105E-2],"split_indices":[37,51,41,45,38,63,52,0,0,0,0,0,0,0,0],"split_type":[0,0,0,0,0,0,0,0,0,0,0,0,0,0,0],"sum_hessian":[7.04E2,3.67E2,3.37E2,1.7E2,1.97E2,2.74E2,6.3E1,4E0,1.66E2,1.72E2,2.5E1,1.31E2,1.43E2,2E0,6.1E1],"tree_param":{"num_deleted":"0","num_feature":"78","num_nodes":"15","size_leaf_vector":"0"}},{"base_weights":[5.6443673E-1,5.412381E-1,6.356606E-1,5.015231E-1,5.666806E-1,1.0603592E0,6.3063455E-1,5.4230064E-1,4.7433805E-1,4.9567014E-1,5.7983065E-1,1.0513695E0,1.0693488E0,6.164588E-1,7.425487E-1],"categories":[],"categories_nodes":[],"categories_segments":[],"categories_sizes":[],"default_left":[1,1,1,1,1,1,1,0,0,0,0,0,0,0,0],"id":4,"left_children":[1,3,5,7,9,11,13,-1,-1,-1,-1,-1,-1,-1,-1],"loss_changes":[1.1500092E0,5.3048706E-1,3.650055E-1,2.2725296E-1,2.9881287E-1,1.6140938E-4,2.6811218E-1,0E0,0E0,0E0,0E0,0E0,0E0,0E0,0E0],"parents":[2147483647,0,0,1,1,2,2,3,3,4,4,5,5,6,6],"right_children":[2,4,6,8,10,12,14,-1,-1,-1,-1,-1,-1,-1,-1],"split_conditions":[5.849665E-3,1.5982586E0,6.05E5,4.68659E5,2.3796215E0,5.63E5,3.277311E0,1.6269019E-2,1.4230141E-2,1.4870103E-2,1.7394919E-2,3.1541087E-2,3.2080464E-2,1.8493762E-2,2.2276461E-2],"split_indices":[35,37,0,57,36,0,36,0,0,0,0,0,0,0,0],"split_type":[0,0,0,0,0,0,0,0,0,0,0,0,0,0,0],"sum_hessian":[6.96E2,5.25E2,1.71E2,2.05E2,3.2E2,2E0,1.69E2,8.2E1,1.23E2,5E1,2.7E2,1E0,1E0,1.5E2,1.9E1],"tree_param":{"num_deleted":"0","num_feature":"78","num_nodes":"15","size_leaf_vector":"0"}},{"base_weights":[5.5023205E-1,5.1406264E-1,5.8497906E-1,4.6346188E-1,5.332419E-1,5.556124E-1,6.3858485E-1,4.9620822E-1,4.0567425E-1,4.2823967E-1,5.4000175E-1,5.4512006E-1,6.4567196E-1,6.076688E-1,7.1896654E-1],"categories":[],"categories_nodes":[],"categories_segments":[],"categories_sizes":[],"default_left":[1,1,1,1,1,1,1,0,0,0,0,0,0,0,0],"id":5,"left_children":[1,3,5,7,9,11,13,-1,-1,-1,-1,-1,-1,-1,-1],"loss_changes":[8.7724304E-1,3.3190155E-1,5.604172E-1,1.7787933E-1,1.7603302E-1,2.1733856E-1,3.1311798E-1,0E0,0E0,0E0,0E0,0E0,0E0,0E0,0E0],"parents":[2147483647,0,0,1,1,2,2,3,3,4,4,5,5,6,6],"right_children":[2,4,6,8,10,12,14,-1,-1,-1,-1,-1,-1,-1,-1],"split_conditions":[2.6928701E0,1.4918303E0,1.05E1,1.2745295E0,2.406431E2,4.928946E-3,1.4734031E3,1.4886246E-2,1.2170227E-2,1.284719E-2,1.6200053E-2,1.6353602E-2,1.937016E-2,1.8230064E-2,2.1568995E-2],"split_indices":[36,37,72,22,45,31,25,0,0,0,0,0,0,0,0],"split_type":[0,0,0,0,0,0,0,0,0,0,0,0,0,0,0],"sum_hessian":[6.98E2,3.42E2,3.56E2,9.4E1,2.48E2,2.3E2,1.26E2,6E1,3.4E1,1.5E1,2.33E2,2.06E2,2.4E1,9.1E1,3.5E1],"tree_param":{"num_deleted":"0","num_feature":"78","num_nodes":"15","size_leaf_vector":"0"}},{"base_weights":[5.346311E-1,5.033238E-1,5.754059E-1,3.819706E-1,5.0867265E-1,5.667375E-1,6.928627E-1,4.35587E-1,2.640146E-1,5.0093776E-1,5.647507E-1,5.5328506E-1,6.361397E-1,5.0122344E-1,7.2668135E-1],"categories":[],"categories_nodes":[],"categories_segments":[],"categories_sizes":[],"default_left":[1,1,1,1,1,1,1,0,0,0,0,0,0,0,0],"id":6,"left_children":[1,3,5,7,9,11,13,-1,-1,-1,-1,-1,-1,-1,-1],"loss_changes":[8.553009E-1,2.4600983E-1,2.9628754E-1,1.0119009E-1,1.5745544E-1,2.530136E-1,1.296196E-1,0E0,0E0,0E0,0E0,0E0,0E0,0E0,0E0],"parents":[2147483647,0,0,1,1,2,2,3,3,4,4,5,5,6,6],"right_children":[2,4,6,8,10,12,14,-1,-1,-1,-1,-1,-1,-1,-1],"split_conditions":[4.162551E-3,1.7598105E2,7.269105E2,4.984242E5,2.8524904E0,3.1165426E0,6E0,1.306761E-2,7.9204375E-3,1.5028132E-2,1.694252E-2,1.659855E-2,1.9084191E-2,1.5036703E-2,2.180044E-2],"split_indices":[31,47,28,48,38,36,72,0,0,0,0,0,0,0,0],"split_type":[0,0,0,0,0,0,0,0,0,0,0,0,0,0,0],"sum_hessian":[6.7E2,3.79E2,2.91E2,1.6E1,3.63E2,2.71E2,2E1,1.1E1,5E0,3.19E2,4.4E1,2.27E2,4.4E1,3E0,1.7E1],"tree_param":{"num_deleted":"0","num_feature":"78","num_nodes":"15","size_leaf_vector":"0"}},{"base_weights":[5.1623344E-1,4.7380936E-1,5.485669E-1,4.4826528E-1,5.200779E-1,5.049968E-1,5.7286894E-1,4.8863432E-1,4.235011E-1,5.066151E-1,6.085476E-1,4.827593E-1,5.535148E-1,5.5780506E-1,6.523309E-1],"categories":[],"categories_nodes":[],"categories_segments":[],"categories_sizes":[],"default_left":[1,1,1,1,0,1,1,0,0,0,0,0,0,0,0],"id":7,"left_children":[1,3,5,7,9,11,13,-1,-1,-1,-1,-1,-1,-1,-1],"loss_changes":[9.4511414E-1,3.5219574E-1,4.140091E-1,1.9194794E-1,1.2624931E-1,1.5104675E-1,3.004532E-1,0E0,0E0,0E0,0E0,0E0,0E0,0E0,0E0],"parents":[2147483647,0,0,1,1,2,2,3,3,4,4,5,5,6,6],"right_children":[2,4,6,8,10,12,14,-1,-1,-1,-1,-1,-1,-1,-1],"split_conditions":[1.6553414E0,5.4766554E-3,1.7151947E0,5.647095E2,2.5265956E-1,2.6398625E0,3.1660733E0,1.4659029E-2,1.2705033E-2,1.5198452E-2,1.8256428E-2,1.44827785E-2,1.6605442E-2,1.6734151E-2,1.9569926E-2],"split_indices":[37,33,41,51,66,36,36,0,0,0,0,0,0,0,0],"split_type":[0,0,0,0,0,0,0,0,0,0,0,0,0,0,0],"sum_hessian":[6.89E2,2.98E2,3.91E2,1.92E2,1.06E2,1.4E2,2.51E2,7.3E1,1.19E2,9.2E1,1.4E1,9.6E1,4.4E1,2.11E2,4E1],"tree_param":{"num_deleted":"0","num_feature":"78","num_nodes":"15","size_leaf_vector":"0"}},{"base_weights":[4.9914548E-1,4.654984E-1,5.3157413E-1,4.4835132E-1,5.181499E-1,5.802444E-1,4.9897635E-1,4.2868295E-1,4.9449635E-1,4.9448696E-1,6.2857693E-1,8.2788134E-1,5.7316905E-1,4.7349325E-1,5.495886E-1],"categories":[],"categories_nodes":[],"categories_segments":[],"categories_sizes":[],"default_left":[1,1,1,1,1,1,1,0,0,0,0,0,0,0,0],"id":8,"left_children":[1,3,5,7,9,11,13,-1,-1,-1,-1,-1,-1,-1,-1],"loss_changes":[7.6924133E-1,3.1237793E-1,5.695648E-1,2.3688126E-1,2.2210693E-1,2.523079E-1,2.7729797E-1,0E0,0E0,0E0,0E0,0E0,0E0,0E0,0E0],"parents":[2147483647,0,0,1,1,2,2,3,3,4,4,5,5,6,6],"right_children":[2,4,6,8,10,12,14,-1,-1,-1,-1,-1,-1,-1,-1],"split_conditions":[2.6928701E0,5.396789E1,5.645159E2,5.183958E-3,3.08315E2,1.525894E5,3.0333884E0,1.2860488E-2,1.483489E-2,1.4834608E-2,1.8857308E-2,2.483644E-2,1.7195072E-2,1.4204797E-2,1.6487658E-2],"split_indices":[36,9,51,35,46,49,36,0,0,0,0,0,0,0,0],"split_type":[0,0,0,0,0,0,0,0,0,0,0,0,0,0,0],"sum_hessian":[7.05E2,3.46E2,3.59E2,2.61E2,8.5E1,1.44E2,2.15E2,1.83E2,7.8E1,7E1,1.5E1,4E0,1.4E2,1.43E2,7.2E1],"tree_param":{"num_deleted":"0","num_feature":"78","num_nodes":"15","size_leaf_vector":"0"}},{"base_weights":[4.8672256E-1,4.4272366E-1,5.129172E-1,4.3240887E-1,5.472169E-1,5.3241885E-1,4.707594E-1,3.9364234E-1,4.6207112E-1,4.7601876E-1,6.3977444E-1,5.229489E-1,6.300316E-1,4.3806127E-1,5.2881527E-1],"categories":[],"categories_nodes":[],"categories_segments":[],"categories_sizes":[],"default_left":[1,1,1,1,1,1,1,0,0,0,0,0,0,0,0],"id":9,"left_children":[1,3,5,7,9,11,13,-1,-1,-1,-1,-1,-1,-1,-1],"loss_changes":[7.9063416E-1,2.7592087E-1,3.5353088E-1,2.6792908E-1,1.5156841E-1,2.7176666E-1,2.5817108E-1,0E0,0E0,0E0,0E0,0E0,0E0,0E0,0E0],"parents":[2147483647,0,0,1,1,2,2,3,3,4,4,5,5,6,6],"right_children":[2,4,6,8,10,12,14,-1,-1,-1,-1,-1,-1,-1,-1],"split_conditions":[4.94516E-3,3.3322125E2,4.5192E5,1.5512518E0,1.0965771E3,7.22004E2,2.9566092E0,1.180927E-2,1.3862133E-2,1.4280562E-2,1.9193232E-2,1.5688468E-2,1.8900948E-2,1.3141838E-2,1.5864458E-2],"split_indices":[35,46,59,37,25,28,36,0,0,0,0,0,0,0,0],"split_type":[0,0,0,0,0,0,0,0,0,0,0,0,0,0,0],"sum_hessian":[6.86E2,2.56E2,4.3E2,2.33E2,2.3E1,2.94E2,1.36E2,1.01E2,1.32E2,1.3E1,1E1,2.68E2,2.6E1,8.7E1,4.9E1],"tree_param":{"num_deleted":"0","num_feature":"78","num_nodes":"15","size_leaf_vector":"0"}},{"base_weights":[4.7873095E-1,4.4843715E-1,5.314158E-1,4.232367E-1,4.7680292E-1,5.071382E-1,5.8690745E-1,4.177838E-1,5.589531E-1,4.11886E-1,4.853166E-1,8.460096E-1,5.0324315E-1,5.2690625E-1,6.193081E-1],"categories":[],"categories_nodes":[],"categories_segments":[],"categories_sizes":[],"default_left":[1,1,1,1,1,1,1,0,0,0,0,0,0,0,0],"id":10,"left_children":[1,3,5,7,9,11,13,-1,-1,-1,-1,-1,-1,-1,-1],"loss_changes":[1.1060333E0,3.145218E-1,3.408432E-1,1.7243195E-1,1.1440277E-1,2.3231125E-1,1.4969444E-1,0E0,0E0,0E0,0E0,0E0,0E0,0E0,0E0],"parents":[2147483647,0,0,1,1,2,2,3,3,4,4,5,5,6,6],"right_children":[2,4,6,8,10,12,14,-1,-1,-1,-1,-1,-1,-1,-1],"split_conditions":[1.7952633E0,1.8336074E0,2.6901355E0,5.425039E2,5.245478E1,1.5880055E2,1.25E1,1.2533514E-2,1.6768593E-2,1.235658E-2,1.4559498E-2,2.5380287E-2,1.5097294E-2,1.5807187E-2,1.8579243E-2],"split_indices":[37,39,38,45,9,52,2,0,0,0,0,0,0,0,0],"split_type":[0,0,0,0,0,0,0,0,0,0,0,0,0,0,0],"sum_hessian":[6.93E2,4.4E2,2.53E2,2.33E2,2.07E2,1.76E2,7.7E1,2.24E2,9E0,2.4E1,1.83E2,2E0,1.74E2,2.7E1,5E1],"tree_param":{"num_deleted":"0","num_feature":"78","num_nodes":"15","size_leaf_vector":"0"}},{"base_weights":[4.5280424E-1,4.1976705E-1,4.8381123E-1,3.8073528E-1,4.5279393E-1,4.7626993E-1,5.936517E-1,3.6586496E-1,4.4483143E-1,3.7169516E-1,4.6114957E-1,4.6928617E-1,5.7563E-1,6.0480094E-1,3.4836924E-1],"categories":[],"categories_nodes":[],"categories_segments":[],"categories_sizes":[],"default_left":[1,1,1,1,1,1,1,0,0,0,0,0,0,0,0],"id":11,"left_children":[1,3,5,7,9,11,13,-1,-1,-1,-1,-1,-1,-1,-1],"loss_changes":[7.1092224E-1,4.33136E-1,2.9654694E-1,1.4678192E-1,1.2332916E-1,2.324524E-1,6.289768E-2,0E0,0E0,0E0,0E0,0E0,0E0,0E0,0E0],"parents":[2147483647,0,0,1,1,2,2,3,3,4,4,5,5,6,6],"right_children":[2,4,6,8,10,12,14,-1,-1,-1,-1,-1,-1,-1,-1],"split_conditions":[5.1457267E-3,1.5843732E0,1.6609955E3,5.3948425E1,3.782097E-1,6.0116416E-3,2.366909E0,1.0975949E-2,1.3344943E-2,1.1150855E-2,1.3834487E-2,1.40785845E-2,1.72689E-2,1.8144028E-2,1.0451077E-2],"split_indices":[35,37,25,9,70,30,39,0,0,0,0,0,0,0,0],"split_type":[0,0,0,0,0,0,0,0,0,0,0,0,0,0,0],"sum_hessian":[6.94E2,3.36E2,3.58E2,1.54E2,1.82E2,3.35E2,2.3E1,1.25E2,2.9E1,1.7E1,1.65E2,3.13E2,2.2E1,2.2E1,1E0],"tree_param":{"num_deleted":"0","num_feature":"78","num_nodes":"15","size_leaf_vector":"0"}},{"base_weights":[4.4393134E-1,4.718023E-1,4.0079287E-1,4.5079967E-1,5.074798E-1,3.8059148E-1,4.4600552E-1,7.5120616E-1,4.485152E-1,5.2670354E-1,4.1959986E-1,3.6697608E-1,4.552413E-1,4.1588253E-1,5.031353E-1],"categories":[],"categories_nodes":[],"categories_segments":[],"categories_sizes":[],"default_left":[1,1,1,1,1,1,1,0,0,0,0,0,0,0,0],"id":12,"left_children":[1,3,5,7,9,11,13,-1,-1,-1,-1,-1,-1,-1,-1],"loss_changes":[8.332062E-1,3.1546783E-1,2.4843216E-1,1.8185806E-1,2.6354218E-1,1.910801E-1,1.4455795E-1,0E0,0E0,0E0,0E0,0E0,0E0,0E0,0E0],"parents":[2147483647,0,0,1,1,2,2,3,3,4,4,5,5,6,6],"right_children":[2,4,6,8,10,12,14,-1,-1,-1,-1,-1,-1,-1,-1],"split_conditions":[4.6131372E5,1.9206691E0,5.395288E1,3.3098846E2,8.52E5,1.9184823E0,4.1349353E2,2.2536185E-2,1.3455456E-2,1.5801106E-2,1.2587995E-2,1.1009282E-2,1.3657238E-2,1.2476476E-2,1.50940595E-2],"split_indices":[57,39,9,51,0,39,47,0,0,0,0,0,0,0,0],"split_type":[0,0,0,0,0,0,0,0,0,0,0,0,0,0,0],"sum_hessian":[6.93E2,4.21E2,2.72E2,2.65E2,1.56E2,1.88E2,8.4E1,2E0,2.63E2,1.28E2,2.8E1,1.59E2,2.9E1,5.5E1,2.9E1],"tree_param":{"num_deleted":"0","num_feature":"78","num_nodes":"15","size_leaf_vector":"0"}},{"base_weights":[4.2963833E-1,3.9758837E-1,4.605146E-1,3.2764146E-1,4.098471E-1,4.7937384E-1,4.09634E-1,2.87534E-1,3.8051042E-1,4.2178547E-1,3.5088623E-1,5.058432E-1,4.4674343E-1,3.0947396E-1,4.2394257E-1],"categories":[],"categories_nodes":[],"categories_segments":[],"categories_sizes":[],"default_left":[1,1,1,1,1,1,1,0,0,0,0,0,0,0,0],"id":13,"left_children":[1,3,5,7,9,11,13,-1,-1,-1,-1,-1,-1,-1,-1],"loss_changes":[6.8974304E-1,2.9325104E-1,3.4065247E-1,1.08142376E-1,2.0483398E-1,2.2369766E-1,1.3758278E-1,0E0,0E0,0E0,0E0,0E0,0E0,0E0,0E0],"parents":[2147483647,0,0,1,1,2,2,3,3,4,4,5,5,6,6],"right_children":[2,4,6,8,10,12,14,-1,-1,-1,-1,-1,-1,-1,-1],"split_conditions":[2.6922731E0,1.4046341E0,6.36912E5,4.6533838E-1,6.131623E2,5.580682E2,9.2956595E-2,8.62602E-3,1.1415312E-2,1.2653564E-2,1.0526586E-2,1.5175296E-2,1.3402303E-2,9.284219E-3,1.2718277E-2],"split_indices":[36,37,50,69,51,51,71,0,0,0,0,0,0,0,0],"split_type":[0,0,0,0,0,0,0,0,0,0,0,0,0,0,0],"sum_hessian":[6.97E2,3.42E2,3.55E2,5.1E1,2.91E2,2.59E2,9.6E1,2.9E1,2.2E1,2.42E2,4.9E1,1.43E2,1.16E2,1.2E1,8.4E1],"tree_param":{"num_deleted":"0","num_feature":"78","num_nodes":"15","size_leaf_vector":"0"}},{"base_weights":[4.1461435E-1,3.8656747E-1,4.5045698E-1,4.0430617E-1,3.505526E-1,4.1764492E-1,4.8347935E-1,3.6287364E-1,4.2388418E-1,3.272283E-1,4.104392E-1,4.0754676E-1,4.79611E-1,4.4484037E-1,5.1492965E-1],"categories":[],"categories_nodes":[],"categories_segments":[],"categories_sizes":[],"default_left":[1,1,1,1,1,1,1,0,0,0,0,0,0,0,0],"id":14,"left_children":[1,3,5,7,9,11,13,-1,-1,-1,-1,-1,-1,-1,-1],"loss_changes":[7.167587E-1,2.5554276E-1,3.3914566E-1,2.1739197E-1,1.8437958E-1,9.8241806E-2,1.895752E-1,0E0,0E0,0E0,0E0,0E0,0E0,0E0,0E0],"parents":[2147483647,0,0,1,1,2,2,3,3,4,4,5,5,6,6],"right_children":[2,4,6,8,10,12,14,-1,-1,-1,-1,-1,-1,-1,-1],"split_conditions":[1.7410438E0,6.11376E5,2.8078952E0,5.3054832E1,2.9049516E0,1.5337273E3,3.0785138E-3,1.0886209E-2,1.2716525E-2,9.816849E-3,1.2313176E-2,1.2226403E-2,1.438833E-2,1.3345211E-2,1.5447889E-2],"split_indices":[37,50,36,9,36,25,34,0,0,0,0,0,0,0,0],"split_type":[0,0,0,0,0,0,0,0,0,0,0,0,0,0,0],"sum_hessian":[7.13E2,4E2,3.13E2,2.68E2,1.32E2,1.57E2,1.56E2,8.6E1,1.82E2,9.5E1,3.7E1,1.35E2,2.2E1,7E1,8.6E1],"tree_param":{"num_deleted":"0","num_feature":"78","num_nodes":"15","size_leaf_vector":"0"}},{"base_weights":[4.0789995E-1,4.3027195E-1,3.6996844E-1,4.0100676E-1,4.5669705E-1,3.471083E-1,4.079163E-1,3.3763033E-1,4.1469032E-1,4.4080183E-1,5.3049624E-1,3.4477308E-1,7.3242015E-1,3.7960225E-1,4.772369E-1],"categories":[],"categories_nodes":[],"categories_segments":[],"categories_sizes":[],"default_left":[1,1,1,1,1,1,1,0,0,0,0,0,0,0,0],"id":15,"left_children":[1,3,5,7,9,11,13,-1,-1,-1,-1,-1,-1,-1,-1],"loss_changes":[6.0845184E-1,3.4877014E-1,2.3075104E-1,1.8558502E-1,2.7801514E-1,1.4936638E-1,1.9627571E-1,0E0,0E0,0E0,0E0,0E0,0E0,0E0,0E0],"parents":[2147483647,0,0,1,1,2,2,3,3,4,4,5,5,6,6],"right_children":[2,4,6,8,10,12,14,-1,-1,-1,-1,-1,-1,-1,-1],"split_conditions":[4.6171578E5,1.2852764E3,1.6315782E0,1.9807253E2,3.1341872E0,3.0723315E2,4.4994464E2,1.012891E-2,1.2440709E-2,1.3224054E-2,1.5914887E-2,1.0343192E-2,2.1972604E-2,1.1388067E-2,1.4317106E-2],"split_indices":[57,25,37,46,36,52,45,0,0,0,0,0,0,0,0],"split_type":[0,0,0,0,0,0,0,0,0,0,0,0,0,0,0],"sum_hessian":[7.17E2,4.51E2,2.66E2,2.14E2,2.37E2,1.66E2,1E2,3.8E1,1.76E2,1.95E2,4.2E1,1.65E2,1E0,7.1E1,2.9E1],"tree_param":{"num_deleted":"0","num_feature":"78","num_nodes":"15","size_leaf_vector":"0"}},{"base_weights":[3.901022E-1,3.611176E-1,4.2754462E-1,3.529769E-1,4.3120706E-1,4.334837E-1,2.941442E-1,3.357317E-1,3.9107308E-1,4.0716386E-1,5.0574106E-1,4.1784737E-1,4.9794915E-1,3.7278512E-1,2.2673771E-1],"categories":[],"categories_nodes":[],"categories_segments":[],"categories_sizes":[],"default_left":[1,1,1,1,1,1,1,0,0,0,0,0,0,0,0],"id":16,"left_children":[1,3,5,7,9,11,13,-1,-1,-1,-1,-1,-1,-1,-1],"loss_changes":[7.585907E-1,2.2480774E-1,2.41642E-1,2.319107E-1,7.347345E-2,2.943344E-1,6.891179E-2,0E0,0E0,0E0,0E0,0E0,0E0,0E0,0E0],"parents":[2147483647,0,0,1,1,2,2,3,3,4,4,5,5,6,6],"right_children":[2,4,6,8,10,12,14,-1,-1,-1,-1,-1,-1,-1,-1],"split_conditions":[4.1616E-3,3.0210466E0,7.6075E2,5.3869316E1,6.071664E5,2.0485544E0,1.8614454E0,1.007195E-2,1.1732192E-2,1.2214916E-2,1.5172231E-2,1.253542E-2,1.4938475E-2,1.1183553E-2,6.802131E-3],"split_indices":[31,36,53,9,48,41,41,0,0,0,0,0,0,0,0],"split_type":[0,0,0,0,0,0,0,0,0,0,0,0,0,0,0],"sum_hessian":[6.99E2,3.94E2,3.05E2,3.53E2,4.1E1,2.92E2,1.3E1,2.43E2,1.1E2,3.1E1,1E1,2.35E2,5.7E1,6E0,7E0],"tree_param":{"num_deleted":"0","num_feature":"78","num_nodes":"15","size_leaf_vector":"0"}},{"base_weights":[3.798072E-1,3.545804E-1,4.2592177E-1,3.323072E-1,3.817191E-1,4.150312E-1,5.1587E-1,3.6115345E-1,2.894662E-1,3.4132814E-1,3.987112E-1,4.004122E-1,4.78032E-1,6.439088E-1,4.5185056E-1],"categories":[],"categories_nodes":[],"categories_segments":[],"categories_sizes":[],"default_left":[1,1,1,1,1,1,1,0,0,0,0,0,0,0,0],"id":17,"left_children":[1,3,5,7,9,11,13,-1,-1,-1,-1,-1,-1,-1,-1],"loss_changes":[8.224716E-1,2.762413E-1,2.4489594E-1,3.101883E-1,1.4138412E-1,2.0538712E-1,2.2131777E-1,0E0,0E0,0E0,0E0,0E0,0E0,0E0,0E0],"parents":[2147483647,0,0,1,1,2,2,3,3,4,4,5,5,6,6],"right_children":[2,4,6,8,10,12,14,-1,-1,-1,-1,-1,-1,-1,-1],"split_conditions":[1.7952958E0,1.7917328E0,5.9156204E-3,5.831902E2,8.32899E0,6.6851587E2,2.1374491E-1,1.0834604E-2,8.683986E-3,1.0239844E-2,1.1961336E-2,1.2012366E-2,1.43409595E-2,1.9317264E-2,1.35555165E-2],"split_indices":[37,41,30,51,55,28,71,0,0,0,0,0,0,0,0],"split_type":[0,0,0,0,0,0,0,0,0,0,0,0,0,0,0],"sum_hessian":[7.07E2,4.57E2,2.5E2,2.51E2,2.06E2,2.23E2,2.7E1,1.5E2,1.01E2,6.1E1,1.45E2,1.81E2,4.2E1,9E0,1.8E1],"tree_param":{"num_deleted":"0","num_feature":"78","num_nodes":"15","size_leaf_vector":"0"}},{"base_weights":[3.6865732E-1,3.5190007E-1,4.1554287E-1,3.0516198E-1,3.690571E-1,3.4219638E-1,4.295783E-1,2.9511496E-1,4.165164E-1,3.7444028E-1,2.6252612E-1,2.097597E-1,3.618166E-1,4.1994914E-1,5.313724E-1],"categories":[],"categories_nodes":[],"categories_segments":[],"categories_sizes":[],"default_left":[1,1,0,1,1,1,1,0,0,0,0,0,0,0,0],"id":18,"left_children":[1,3,5,7,9,11,13,-1,-1,-1,-1,-1,-1,-1,-1],"loss_changes":[5.758896E-1,4.3302155E-1,1.9868469E-1,1.6222286E-1,2.2652435E-1,8.0551624E-2,1.587925E-1,0E0,0E0,0E0,0E0,0E0,0E0,0E0,0E0],"parents":[2147483647,0,0,1,1,2,2,3,3,4,4,5,5,6,6],"right_children":[2,4,6,8,10,12,14,-1,-1,-1,-1,-1,-1,-1,-1],"split_conditions":[5.838589E-3,1.5095243E0,1.2499496E5,2.9147794E0,8.558887E0,1.3682245E0,1.6504031E3,8.853449E-3,1.2495492E-2,1.1233208E-2,7.875783E-3,6.2927906E-3,1.08544985E-2,1.2598474E-2,1.5941173E-2],"split_indices":[35,37,61,36,10,19,25,0,0,0,0,0,0,0,0],"split_type":[0,0,0,0,0,0,0,0,0,0,0,0,0,0,0],"sum_hessian":[7.33E2,5.4E2,1.93E2,1.45E2,3.95E2,3.1E1,1.62E2,1.33E2,1.2E1,3.76E2,1.9E1,4E0,2.7E1,1.48E2,1.4E1],"tree_param":{"num_deleted":"0","num_feature":"78","num_nodes":"15","size_leaf_vector":"0"}},{"base_weights":[3.492449E-1,3.231878E-1,3.8315484E-1,2.8100106E-1,3.4242234E-1,3.5553196E-1,4.06907E-1,4.673222E-1,2.761824E-1,2.5041598E-1,3.476373E-1,8.0977666E-1,3.521421E-1,4.358246E-1,3.349343E-1],"categories":[],"categories_nodes":[],"categories_segments":[],"categories_sizes":[],"default_left":[1,1,1,1,1,1,1,0,0,0,0,0,0,0,0],"id":19,"left_children":[1,3,5,7,9,11,13,-1,-1,-1,-1,-1,-1,-1,-1],"loss_changes":[5.937729E-1,3.083496E-1,1.9158173E-1,1.0684013E-1,1.2522888E-1,2.0787811E-1,3.2676125E-1,0E0,0E0,0E0,0E0,0E0,0E0,0E0,0E0],"parents":[2147483647,0,0,1,1,2,2,3,3,4,4,5,5,6,6],"right_children":[2,4,6,8,10,12,14,-1,-1,-1,-1,-1,-1,-1,-1],"split_conditions":[5.502753E-3,1.5300333E0,1.2812743E3,3.1479547E2,2.1178641E0,6.065E5,5.483887E5,1.4019665E-2,8.285472E-3,7.512479E-3,1.0429119E-2,2.42933E-2,1.0564263E-2,1.3074738E-2,1.0048029E-2],"split_indices":[33,37,25,28,36,0,48,0,0,0,0,0,0,0,0],"split_type":[0,0,0,0,0,0,0,0,0,0,0,0,0,0,0],"sum_hessian":[6.72E2,3.8E2,2.92E2,1.19E2,2.61E2,1.35E2,1.57E2,3E0,1.16E2,1.4E1,2.47E2,1E0,1.34E2,1.12E2,4.5E1],"tree_param":{"num_deleted":"0","num_feature":"78","num_nodes":"15","size_leaf_vector":"0"}},{"base_weights":[3.4269798E-1,3.1941512E-1,3.798459E-1,2.9834044E-1,3.4993708E-1,3.666122E-1,4.572121E-1,2.1312657E-1,3.107352E-1,3.342477E-1,3.8996097E-1,3.5100585E-1,4.1689935E-1,4.949284E-1,3.4783477E-1],"categories":[],"categories_nodes":[],"categories_segments":[],"categories_sizes":[],"default_left":[1,1,1,1,1,1,1,0,0,0,0,0,0,0,0],"id":20,"left_children":[1,3,5,7,9,11,13,-1,-1,-1,-1,-1,-1,-1,-1],"loss_changes":[5.993805E-1,2.7402115E-1,2.7336502E-1,2.6616287E-1,1.0926247E-1,1.789341E-1,1.6088676E-1,0E0,0E0,0E0,0E0,0E0,0E0,0E0,0E0],"parents":[2147483647,0,0,1,1,2,2,3,3,4,4,5,5,6,6],"right_children":[2,4,6,8,10,12,14,-1,-1,-1,-1,-1,-1,-1,-1],"split_conditions":[1.7891991E0,5.502753E-3,3.1378214E0,1.340497E0,4.4197223E2,6.492882E2,5.5405975E5,6.3937968E-3,9.322056E-3,1.0027431E-2,1.1698829E-2,1.0530176E-2,1.250698E-2,1.4847851E-2,1.0435043E-2],"split_indices":[37,33,36,37,45,28,48,0,0,0,0,0,0,0,0],"split_type":[0,0,0,0,0,0,0,0,0,0,0,0,0,0,0],"sum_hessian":[6.93E2,4.26E2,2.67E2,2.52E2,1.74E2,2.28E2,3.9E1,3.2E1,2.2E2,1.25E2,4.9E1,1.74E2,5.4E1,2.9E1,1E1],"tree_param":{"num_deleted":"0","num_feature":"78","num_nodes":"15","size_leaf_vector":"0"}},{"base_weights":[3.3435515E-1,3.062718E-1,3.5875303E-1,2.7464613E-1,3.1996253E-1,3.186764E-1,3.8283268E-1,2.9896402E-1,2.4369611E-1,3.3023027E-1,2.6941374E-1,2.9121602E-1,3.919042E-1,3.7861767E-1,5.458134E-1],"categories":[],"categories_nodes":[],"categories_segments":[],"categories_sizes":[],"default_left":[1,1,1,1,1,1,1,0,0,0,0,0,0,0,0],"id":21,"left_children":[1,3,5,7,9,11,13,-1,-1,-1,-1,-1,-1,-1,-1],"loss_changes":[4.8784637E-1,1.4331627E-1,3.6767578E-1,7.52635E-2,1.1989403E-1,2.875538E-1,1.6349792E-1,0E0,0E0,0E0,0E0,0E0,0E0,0E0,0E0],"parents":[2147483647,0,0,1,1,2,2,3,3,4,4,5,5,6,6],"right_children":[2,4,6,8,10,12,14,-1,-1,-1,-1,-1,-1,-1,-1],"split_conditions":[2.643753E0,1.4989731E0,7.5E0,5.0184E5,3.02344E5,3.1659157E0,1.36475E3,8.96892E-3,7.310883E-3,9.906908E-3,8.082412E-3,8.73648E-3,1.1757126E-2,1.135853E-2,1.6374402E-2],"split_indices":[36,37,72,59,60,36,29,0,0,0,0,0,0,0,0],"split_type":[0,0,0,0,0,0,0,0,0,0,0,0,0,0,0],"sum_hessian":[7.12E2,3.31E2,3.81E2,1E2,2.31E2,1.43E2,2.38E2,5.6E1,4.4E1,1.92E2,3.9E1,1.04E2,3.9E1,2.32E2,6E0],"tree_param":{"num_deleted":"0","num_feature":"78","num_nodes":"15","size_leaf_vector":"0"}},{"base_weights":[3.2672435E-1,3.092862E-1,3.788336E-1,2.9449052E-1,3.5609874E-1,3.584899E-1,4.353439E-1,3.0559996E-1,2.1983513E-1,6.633407E-1,3.5097805E-1,3.4207374E-1,4.1807455E-1,4.0780717E-1,6.1433256E-1],"categories":[],"categories_nodes":[],"categories_segments":[],"categories_sizes":[],"default_left":[1,1,1,1,1,1,1,0,0,0,0,0,0,0,0],"id":22,"left_children":[1,3,5,7,9,11,13,-1,-1,-1,-1,-1,-1,-1,-1],"loss_changes":[6.160965E-1,3.5185242E-1,1.9543839E-1,3.2013702E-1,1.9194126E-1,1.2226868E-1,2.2179413E-1,0E0,0E0,0E0,0E0,0E0,0E0,0E0,0E0],"parents":[2147483647,0,0,1,1,2,2,3,3,4,4,5,5,6,6],"right_children":[2,4,6,8,10,12,14,-1,-1,-1,-1,-1,-1,-1,-1],"split_conditions":[1.9374337E0,5.3976387E1,3.1704154E0,6.545393E2,6.54E5,2.5998434E2,5.5291625E-3,9.167998E-3,6.5950537E-3,1.990022E-2,1.0529341E-2,1.0262212E-2,1.2542237E-2,1.2234215E-2,1.8429976E-2],"split_indices":[41,9,36,51,0,52,31,0,0,0,0,0,0,0,0],"split_type":[0,0,0,0,0,0,0,0,0,0,0,0,0,0,0],"sum_hessian":[6.78E2,5.08E2,1.7E2,3.86E2,1.22E2,1.25E2,4.5E1,3.36E2,5E1,2E0,1.2E2,9.8E1,2.7E1,3.9E1,6E0],"tree_param":{"num_deleted":"0","num_feature":"78","num_nodes":"15","size_leaf_vector":"0"}},{"base_weights":[3.1778157E-1,2.958279E-1,3.5062954E-1,3.192068E-1,2.7447218E-1,3.295697E-1,3.9959365E-1,2.8636813E-1,3.3668545E-1,2.7266893E-1,6.4774656E-1,7.1342963E-1,3.274948E-1,4.335922E-1,3.4292933E-1],"categories":[],"categories_nodes":[],"categories_segments":[],"categories_sizes":[],"default_left":[1,1,1,1,1,1,1,0,0,0,0,0,0,0,0],"id":23,"left_children":[1,3,5,7,9,11,13,-1,-1,-1,-1,-1,-1,-1,-1],"loss_changes":[4.7883606E-1,1.987114E-1,2.74292E-1,1.09054565E-1,1.4000702E-1,1.4814568E-1,1.5412045E-1,0E0,0E0,0E0,0E0,0E0,0E0,0E0,0E0],"parents":[2147483647,0,0,1,1,2,2,3,3,4,4,5,5,6,6],"right_children":[2,4,6,8,10,12,14,-1,-1,-1,-1,-1,-1,-1,-1],"split_conditions":[1.768173E0,4.50972E5,2.6494129E0,2.346031E0,5.5E0,1.4682947E2,6.0423944E2,8.591044E-3,1.0100563E-2,8.180068E-3,1.9432396E-2,2.1402888E-2,9.824844E-3,1.3007766E-2,1.028788E-2],"split_indices":[37,59,38,38,74,52,51,0,0,0,0,0,0,0,0],"split_type":[0,0,0,0,0,0,0,0,0,0,0,0,0,0,0],"sum_hessian":[6.64E2,3.98E2,2.66E2,1.9E2,2.08E2,1.86E2,8E1,6.6E1,1.24E2,2.07E2,1E0,1E0,1.85E2,5E1,3E1],"tree_param":{"num_deleted":"0","num_feature":"78","num_nodes":"15","size_leaf_vector":"0"}},{"base_weights":[3.078243E-1,2.771775E-1,3.304902E-1,1.7088033E-1,2.839455E-1,3.220067E-1,4.2709255E-1,2.0186606E-1,7.017672E-2,3.127479E-1,2.60075E-1,2.7227226E-1,3.334439E-1,3.663261E-1,5.1123077E-1],"categories":[],"categories_nodes":[],"categories_segments":[],"categories_sizes":[],"default_left":[1,1,1,1,1,1,1,0,0,0,0,0,0,0,0],"id":24,"left_children":[1,3,5,7,9,11,13,-1,-1,-1,-1,-1,-1,-1,-1],"loss_changes":[4.6401978E-1,2.0431328E-1,3.1469345E-1,5.3046405E-2,1.8357086E-1,2.0079803E-1,1.584959E-1,0E0,0E0,0E0,0E0,0E0,0E0,0E0,0E0],"parents":[2147483647,0,0,1,1,2,2,3,3,4,4,5,5,6,6],"right_children":[2,4,6,8,10,12,14,-1,-1,-1,-1,-1,-1,-1,-1],"split_conditions":[1.6483912E0,1.8423438E2,3.17765E0,5.4032525E5,5.6723035E2,2.4696264E0,3.8255548E-1,6.055982E-3,2.1053015E-3,9.382437E-3,7.80225E-3,8.168167E-3,1.0003317E-2,1.0989782E-2,1.5336922E-2],"split_indices":[37,47,36,48,51,36,70,0,0,0,0,0,0,0,0],"split_type":[0,0,0,0,0,0,0,0,0,0,0,0,0,0,0],"sum_hessian":[6.68E2,2.84E2,3.84E2,1.7E1,2.67E2,3.53E2,3.1E1,1.3E1,4E0,1.21E2,1.46E2,6.6E1,2.87E2,1.8E1,1.3E1],"tree_param":{"num_deleted":"0","num_feature":"78","num_nodes":"15","size_leaf_vector":"0"}},{"base_weights":[3.0338848E-1,2.8790158E-1,3.4816587E-1,3.079057E-1,2.6446816E-1,3.6682627E-1,2.8098843E-1,2.8111055E-1,3.3683667E-1,2.4264552E-1,3.070618E-1,3.4498525E-1,4.1646492E-1,2.2745378E-1,3.5341763E-1],"categories":[],"categories_nodes":[],"categories_segments":[],"categories_sizes":[],"default_left":[1,1,1,1,1,1,1,0,0,0,0,0,0,0,0],"id":25,"left_children":[1,3,5,7,9,11,13,-1,-1,-1,-1,-1,-1,-1,-1],"loss_changes":[4.96521E-1,2.4938583E-1,2.3065567E-1,2.2248459E-1,2.2772789E-1,1.561184E-1,1.5509892E-1,0E0,0E0,0E0,0E0,0E0,0E0,0E0,0E0],"parents":[2147483647,0,0,1,1,2,2,3,3,4,4,5,5,6,6],"right_children":[2,4,6,8,10,12,14,-1,-1,-1,-1,-1,-1,-1,-1],"split_conditions":[3.2118893E0,5.7112305E2,7.2321427E-1,2.5801506E0,5.503241E-3,1.9419768E0,6.3194996E-3,8.433317E-3,1.01050995E-2,7.2793653E-3,9.211853E-3,1.0349557E-2,1.24939475E-2,6.8236133E-3,1.0602529E-2],"split_indices":[16,51,14,36,33,19,33,0,0,0,0,0,0,0,0],"split_type":[0,0,0,0,0,0,0,0,0,0,0,0,0,0,0],"sum_hessian":[7.16E2,5.32E2,1.84E2,2.87E2,2.45E2,1.44E2,4E1,1.49E2,1.38E2,1.62E2,8.3E1,1E2,4.4E1,2.3E1,1.7E1],"tree_param":{"num_deleted":"0","num_feature":"78","num_nodes":"15","size_leaf_vector":"0"}},{"base_weights":[2.9125294E-1,2.829337E-1,3.7268054E-1,2.6072595E-1,3.013668E-1,5.304597E-1,3.5974783E-1,2.4847333E-1,3.2485664E-1,2.955418E-1,3.98353E-1,4.5737177E-1,6.4009154E-1,4.1076517E-1,3.070299E-1],"categories":[],"categories_nodes":[],"categories_segments":[],"categories_sizes":[],"default_left":[1,1,1,1,1,1,1,0,0,0,0,0,0,0,0],"id":26,"left_children":[1,3,5,7,9,11,13,-1,-1,-1,-1,-1,-1,-1,-1],"loss_changes":[4.8231888E-1,2.6444626E-1,1.3467407E-1,2.3023033E-1,1.9942474E-1,4.0063858E-2,1.6406107E-1,0E0,0E0,0E0,0E0,0E0,0E0,0E0,0E0],"parents":[2147483647,0,0,1,1,2,2,3,3,4,4,5,5,6,6],"right_children":[2,4,6,8,10,12,14,-1,-1,-1,-1,-1,-1,-1,-1],"split_conditions":[3.1341872E0,2.4046109E2,1.0849409E5,3.3386848E-3,7.068529E2,5.373711E1,8.499837E-1,7.4541997E-3,9.745699E-3,8.866253E-3,1.195059E-2,1.3721153E-2,1.9202746E-2,1.2322955E-2,9.210897E-3],"split_indices":[36,46,58,34,28,9,40,0,0,0,0,0,0,0,0],"split_type":[0,0,0,0,0,0,0,0,0,0,0,0,0,0,0],"sum_hessian":[7.12E2,6.46E2,6.6E1,2.93E2,3.53E2,5E0,6.1E1,2.46E2,4.7E1,3.33E2,2E1,3E0,2E0,3.1E1,3E1],"tree_param":{"num_deleted":"0","num_feature":"78","num_nodes":"15","size_leaf_vector":"0"}},{"base_weights":[2.7743185E-1,2.5600314E-1,3.135134E-1,2.481926E-1,3.2741383E-1,2.9090405E-1,3.67173E-1,2.3051177E-1,2.7935666E-1,3.9763504E-1,2.9932535E-1,2.703926E-1,3.2408428E-1,3.4622774E-1,4.5843452E-1],"categories":[],"categories_nodes":[],"categories_segments":[],"categories_sizes":[],"default_left":[1,1,1,1,1,1,1,0,0,0,0,0,0,0,0],"id":27,"left_children":[1,3,5,7,9,11,13,-1,-1,-1,-1,-1,-1,-1,-1],"loss_changes":[5.249939E-1,2.3760414E-1,3.06942E-1,2.11586E-1,8.284092E-2,1.2114239E-1,1.4336205E-1,0E0,0E0,0E0,0E0,0E0,0E0,0E0,0E0],"parents":[2147483647,0,0,1,1,2,2,3,3,4,4,5,5,6,6],"right_children":[2,4,6,8,10,12,14,-1,-1,-1,-1,-1,-1,-1,-1],"split_conditions":[1.7952633E0,3.1625916E2,2.6801584E0,5.500895E-3,1.45E1,1.8294189E0,2.8586432E2,6.915353E-3,8.3807E-3,1.1929051E-2,8.97976E-3,8.111778E-3,9.722528E-3,1.0386832E-2,1.3753035E-2],"split_indices":[37,46,38,33,2,19,46,0,0,0,0,0,0,0,0],"split_type":[0,0,0,0,0,0,0,0,0,0,0,0,0,0,0],"sum_hessian":[6.79E2,4.26E2,2.53E2,3.84E2,4.2E1,1.78E2,7.5E1,2.45E2,1.39E2,1.2E1,3E1,1.1E2,6.8E1,6.1E1,1.4E1],"tree_param":{"num_deleted":"0","num_feature":"78","num_nodes":"15","size_leaf_vector":"0"}},{"base_weights":[2.726398E-1,3.0926204E-1,2.5813887E-1,6.67349E-1,3.0557042E-1,2.5212795E-1,3.6656648E-1,6.433728E-1,6.913252E-1,2.926647E-1,3.709056E-1,2.315897E-1,2.7459168E-1,4.6321797E-1,3.3757102E-1],"categories":[],"categories_nodes":[],"categories_segments":[],"categories_sizes":[],"default_left":[1,1,1,1,1,1,1,0,0,0,0,0,0,0,0],"id":28,"left_children":[1,3,5,7,9,11,13,-1,-1,-1,-1,-1,-1,-1,-1],"loss_changes":[3.6695862E-1,2.5909615E-1,3.2261276E-1,1.149714E-3,1.6357994E-1,2.1638107E-1,7.2864056E-2,0E0,0E0,0E0,0E0,0E0,0E0,0E0,0E0],"parents":[2147483647,0,0,1,1,2,2,3,3,4,4,5,5,6,6],"right_children":[2,4,6,8,10,12,14,-1,-1,-1,-1,-1,-1,-1,-1],"split_conditions":[2.7870306E-1,6.11E5,3.8887305E0,5.63E5,4.8544385E2,1.7103295E0,3.9985785E0,1.9301184E-2,2.0739755E-2,8.779941E-3,1.1127168E-2,6.947691E-3,8.23775E-3,1.3896539E-2,1.0127131E-2],"split_indices":[10,0,16,0,45,37,16,0,0,0,0,0,0,0,0],"split_type":[0,0,0,0,0,0,0,0,0,0,0,0,0,0,0],"sum_hessian":[6.91E2,1.96E2,4.95E2,2E0,1.94E2,4.69E2,2.6E1,1E0,1E0,1.62E2,3.2E1,2.45E2,2.24E2,6E0,2E1],"tree_param":{"num_deleted":"0","num_feature":"78","num_nodes":"15","size_leaf_vector":"0"}},{"base_weights":[2.615868E-1,2.435275E-1,3.084459E-1,2.5146496E-1,1.6639596E-1,2.7230468E-1,3.3307308E-1,2.645677E-1,2.1534991E-1,3.8779557E-2,1.8930146E-1,3.9329755E-1,2.5424603E-1,2.8352442E-1,3.6586267E-1],"categories":[],"categories_nodes":[],"categories_segments":[],"categories_sizes":[],"default_left":[1,1,1,1,1,1,1,0,0,0,0,0,0,0,0],"id":29,"left_children":[1,3,5,7,9,11,13,-1,-1,-1,-1,-1,-1,-1,-1],"loss_changes":[5.7798386E-1,3.018303E-1,1.6910934E-1,2.1152306E-1,1.3446343E-1,1.6824245E-1,1.8358898E-1,0E0,0E0,0E0,0E0,0E0,0E0,0E0,0E0],"parents":[2147483647,0,0,1,1,2,2,3,3,4,4,5,5,6,6],"right_children":[2,4,6,8,10,12,14,-1,-1,-1,-1,-1,-1,-1,-1],"split_conditions":[2.8942142E0,1.1862622E3,1.7410438E0,5.92505E2,5.2451923E1,4.8621697E-3,5.3419445E1,7.937031E-3,6.460497E-3,1.1633866E-3,5.6790435E-3,1.1798927E-2,7.6273805E-3,8.505733E-3,1.097588E-2],"split_indices":[36,27,37,51,9,30,9,0,0,0,0,0,0,0,0],"split_type":[0,0,0,0,0,0,0,0,0,0,0,0,0,0,0],"sum_hessian":[6.83E2,4.93E2,1.9E2,4.47E2,4.6E1,7.7E1,1.13E2,3.28E2,1.19E2,7E0,3.9E1,1E1,6.7E1,4.5E1,6.8E1],"tree_param":{"num_deleted":"0","num_feature":"78","num_nodes":"15","size_leaf_vector":"0"}},{"base_weights":[2.5892857E-1,2.3307408E-1,2.879379E-1,1.3110594E-1,2.3908906E-1,2.4353004E-1,3.0443227E-1,2.7353328E-1,1.1611359E-1,2.2114043E-1,2.6847163E-1,2.693644E-1,2.0908424E-1,3.1789768E-1,2.5057063E-1],"categories":[],"categories_nodes":[],"categories_segments":[],"categories_sizes":[],"default_left":[1,1,1,1,1,1,1,0,0,0,0,0,0,0,0],"id":30,"left_children":[1,3,5,7,9,11,13,-1,-1,-1,-1,-1,-1,-1,-1],"loss_changes":[5.3476715E-1,2.3122597E-1,2.4611473E-1,4.4841737E-2,1.8774605E-1,8.097935E-2,1.776905E-1,0E0,0E0,0E0,0E0,0E0,0E0,0E0,0E0],"parents":[2147483647,0,0,1,1,2,2,3,3,4,4,5,5,6,6],"right_children":[2,4,6,8,10,12,14,-1,-1,-1,-1,-1,-1,-1,-1],"split_conditions":[1.720232E0,1.8179523E2,1.7106379E0,1.8927495E0,1.7944906E0,4.290573E-1,4.52772E5,8.205999E-3,3.4834077E-3,6.6342126E-3,8.054148E-3,8.080931E-3,6.272527E-3,9.53693E-3,7.5171185E-3],"split_indices":[37,47,41,36,41,70,59,0,0,0,0,0,0,0,0],"split_type":[0,0,0,0,0,0,0,0,0,0,0,0,0,0,0],"sum_hessian":[7.13E2,3.77E2,3.36E2,2.1E1,3.56E2,9.1E1,2.45E2,2E0,1.9E1,2.21E2,1.35E2,5.2E1,3.9E1,1.96E2,4.9E1],"tree_param":{"num_deleted":"0","num_feature":"78","num_nodes":"15","size_leaf_vector":"0"}},{"base_weights":[2.4654253E-1,2.2962129E-1,2.750555E-1,1.23643875E-1,2.3508942E-1,2.6038873E-1,3.2691297E-1,2.5325048E-1,1.1000107E-1,2.1597862E-1,2.645917E-1,4.1315174E-1,2.547901E-1,2.1404904E-1,3.4852523E-1],"categories":[],"categories_nodes":[],"categories_segments":[],"categories_sizes":[],"default_left":[1,1,1,1,1,1,1,0,0,0,0,0,0,0,0],"id":31,"left_children":[1,3,5,7,9,11,13,-1,-1,-1,-1,-1,-1,-1,-1],"loss_changes":[3.2904434E-1,2.480259E-1,1.9318771E-1,3.7132144E-2,2.294712E-1,1.69343E-1,1.3659763E-1,0E0,0E0,0E0,0E0,0E0,0E0,0E0,0E0],"parents":[2147483647,0,0,1,1,2,2,3,3,4,4,5,5,6,6],"right_children":[2,4,6,8,10,12,14,-1,-1,-1,-1,-1,-1,-1,-1],"split_conditions":[1.789263E0,1.836192E2,2.0075254E0,2.1684768E-3,5.502753E-3,6.565E5,3.3937534E-3,7.5975144E-3,3.300032E-3,6.4793583E-3,7.937751E-3,1.2394552E-2,7.643703E-3,6.421471E-3,1.0455756E-2],"split_indices":[37,47,19,32,33,0,32,0,0,0,0,0,0,0,0],"split_type":[0,0,0,0,0,0,0,0,0,0,0,0,0,0,0],"sum_hessian":[6.82E2,4.28E2,2.54E2,2.1E1,4.07E2,1.98E2,5.6E1,2E0,1.9E1,2.47E2,1.6E2,7E0,1.91E2,9E0,4.7E1],"tree_param":{"num_deleted":"0","num_feature":"78","num_nodes":"15","size_leaf_vector":"0"}},{"base_weights":[2.4375378E-1,2.194608E-1,2.6941234E-1,1.22957E-1,2.2610627E-1,2.5107324E-1,3.0955076E-1,2.0736791E-1,8.602723E-2,2.2390357E-1,4.6913835E-1,2.5766742E-1,1.6767623E-1,6.2541956E-1,3.0347636E-1],"categories":[],"categories_nodes":[],"categories_segments":[],"categories_sizes":[],"default_left":[1,1,1,1,1,1,1,0,0,0,0,0,0,0,0],"id":32,"left_children":[1,3,5,7,9,11,13,-1,-1,-1,-1,-1,-1,-1,-1],"loss_changes":[4.3320847E-1,2.289486E-1,2.4880409E-1,7.1697325E-2,1.7880058E-1,1.2758541E-1,2.0338345E-1,0E0,0E0,0E0,0E0,0E0,0E0,0E0,0E0],"parents":[2147483647,0,0,1,1,2,2,3,3,4,4,5,5,6,6],"right_children":[2,4,6,8,10,12,14,-1,-1,-1,-1,-1,-1,-1,-1],"split_conditions":[1.7083969E0,5.216346E1,2.6516361E0,1.75E0,5.5E0,2.75E0,4.375E-1,6.2210374E-3,2.5808169E-3,6.717107E-3,1.40741505E-2,7.7300225E-3,5.0302865E-3,1.8762587E-2,9.104291E-3],"split_indices":[37,9,38,17,74,17,63,0,0,0,0,0,0,0,0],"split_type":[0,0,0,0,0,0,0,0,0,0,0,0,0,0,0],"sum_hessian":[6.95E2,3.57E2,3.38E2,2.3E1,3.34E2,2.32E2,1.06E2,7E0,1.6E1,3.31E2,3E0,2.15E2,1.7E1,2E0,1.04E2],"tree_param":{"num_deleted":"0","num_feature":"78","num_nodes":"15","size_leaf_vector":"0"}},{"base_weights":[2.3301217E-1,2.0813286E-1,2.5004718E-1,2.1913517E-1,1.6196246E-1,2.738764E-1,2.1792382E-1,1.2652622E-1,2.2590111E-1,1.4661755E-1,2.5403202E-1,2.2163485E-1,2.863401E-1,2.2427458E-1,1.09325975E-1],"categories":[],"categories_nodes":[],"categories_segments":[],"categories_sizes":[],"default_left":[1,1,1,1,1,1,1,0,0,0,0,0,0,0,0],"id":33,"left_children":[1,3,5,7,9,11,13,-1,-1,-1,-1,-1,-1,-1,-1],"loss_changes":[3.0345154E-1,1.4782238E-1,3.2532883E-1,1.4724731E-1,7.911682E-2,1.5887451E-1,1.248312E-1,0E0,0E0,0E0,0E0,0E0,0E0,0E0,0E0],"parents":[2147483647,0,0,1,1,2,2,3,3,4,4,5,5,6,6],"right_children":[2,4,6,8,10,12,14,-1,-1,-1,-1,-1,-1,-1,-1],"split_conditions":[2.6243205E0,6.013158E2,6.4625E2,2.409036E2,3.091463E2,1.6338859E0,7.2851048E0,3.7957865E-3,6.777033E-3,4.398526E-3,7.6209605E-3,6.6490453E-3,8.590203E-3,6.728237E-3,3.279779E-3],"split_indices":[36,51,53,45,46,37,10,0,0,0,0,0,0,0,0],"split_type":[0,0,0,0,0,0,0,0,0,0,0,0,0,0,0],"sum_hessian":[7.16E2,2.91E2,4.25E2,2.35E2,5.6E1,2.44E2,1.81E2,1.6E1,2.19E2,4.8E1,8E0,4.7E1,1.97E2,1.71E2,1E1],"tree_param":{"num_deleted":"0","num_feature":"78","num_nodes":"15","size_leaf_vector":"0"}},{"base_weights":[2.2727104E-1,2.0950168E-1,2.5537294E-1,2.0240776E-1,2.642262E-1,2.4326986E-1,3.1430966E-1,1.9767909E-1,2.7539384E-1,2.2560795E-1,3.5176092E-1,2.2146058E-1,2.8252655E-1,3.3830234E-1,2.0034432E-1],"categories":[],"categories_nodes":[],"categories_segments":[],"categories_sizes":[],"default_left":[1,1,1,1,1,1,1,0,0,0,0,0,0,0,0],"id":34,"left_children":[1,3,5,7,9,11,13,-1,-1,-1,-1,-1,-1,-1,-1],"loss_changes":[3.4804916E-1,1.6576576E-1,1.9259453E-1,1.3045883E-1,1.6564131E-1,1.9178009E-1,1.2577915E-1,0E0,0E0,0E0,0E0,0E0,0E0,0E0,0E0],"parents":[2147483647,0,0,1,1,2,2,3,3,4,4,5,5,6,6],"right_children":[2,4,6,8,10,12,14,-1,-1,-1,-1,-1,-1,-1,-1],"split_conditions":[1.7891748E0,4.6216516E2,2.0484157E0,2.967408E2,1.2827432E3,3.8745322E2,2.2780766E0,5.9303725E-3,8.261815E-3,6.7682383E-3,1.0552827E-2,6.6438173E-3,8.475796E-3,1.014907E-2,6.01033E-3],"split_indices":[37,47,41,52,25,47,39,0,0,0,0,0,0,0,0],"split_type":[0,0,0,0,0,0,0,0,0,0,0,0,0,0,0],"sum_hessian":[6.97E2,4.27E2,2.7E2,3.78E2,4.9E1,2.24E2,4.6E1,3.55E2,2.3E1,3.4E1,1.5E1,1.44E2,8E1,3.8E1,8E0],"tree_param":{"num_deleted":"0","num_feature":"78","num_nodes":"15","size_leaf_vector":"0"}},{"base_weights":[2.1647088E-1,2.1213055E-1,3.0993268E-1,1.7400205E-1,2.2396353E-1,2.4646723E-1,4.1955477E-1,1.9744864E-1,1.1402243E-1,2.0755333E-1,2.4904166E-1,4.1596308E-1,2.2652656E-1,3.5414633E-1,4.980449E-1],"categories":[],"categories_nodes":[],"categories_segments":[],"categories_sizes":[],"default_left":[1,1,1,1,1,1,1,0,0,0,0,0,0,0,0],"id":35,"left_children":[1,3,5,7,9,11,13,-1,-1,-1,-1,-1,-1,-1,-1],"loss_changes":[2.7422333E-1,2.9145813E-1,2.0871639E-1,2.1516657E-1,2.0288849E-1,6.421745E-2,5.6473017E-2,0E0,0E0,0E0,0E0,0E0,0E0,0E0,0E0],"parents":[2147483647,0,0,1,1,2,2,3,3,4,4,5,5,6,6],"right_children":[2,4,6,8,10,12,14,-1,-1,-1,-1,-1,-1,-1,-1],"split_conditions":[5.9276996E-3,5.3047222E1,1.937453E0,4.6947838E5,4.253224E2,4.61875E2,3.1053592E2,5.9234593E-3,3.4206726E-3,6.2265997E-3,7.47125E-3,1.2478893E-2,6.7957966E-3,1.062439E-2,1.4941347E-2],"split_indices":[30,9,37,57,45,44,45,0,0,0,0,0,0,0,0],"split_type":[0,0,0,0,0,0,0,0,0,0,0,0,0,0,0],"sum_hessian":[6.76E2,6.46E2,3E1,1.53E2,4.93E2,1.9E1,1.1E1,1.1E2,4.3E1,2.98E2,1.95E2,2E0,1.7E1,6E0,5E0],"tree_param":{"num_deleted":"0","num_feature":"78","num_nodes":"15","size_leaf_vector":"0"}},{"base_weights":[2.134956E-1,2.0620778E-1,2.839824E-1,2.2247368E-1,1.6920073E-1,2.4618287E-1,3.3578178E-1,2.5170383E-1,2.104941E-1,1.6140008E-1,2.9542956E-1,2.5742868E-1,4.9381137E-2,5.271565E-1,3.1185994E-1],"categories":[],"categories_nodes":[],"categories_segments":[],"categories_sizes":[],"default_left":[1,1,1,1,1,1,1,0,0,0,0,0,0,0,0],"id":36,"left_children":[1,3,5,7,9,11,13,-1,-1,-1,-1,-1,-1,-1,-1],"loss_changes":[3.5085297E-1,3.7260818E-1,1.2531185E-1,1.5057182E-1,1.8610239E-1,8.188844E-2,1.2360692E-1,0E0,0E0,0E0,0E0,0E0,0E0,0E0,0E0],"parents":[2147483647,0,0,1,1,2,2,3,3,4,4,5,5,6,6],"right_children":[2,4,6,8,10,12,14,-1,-1,-1,-1,-1,-1,-1,-1],"split_conditions":[1.5352523E3,4.75954E5,7.306696E-1,1.4305851E-1,5.2145703E2,6.744525E2,1.137435E0,7.5511145E-3,6.314823E-3,4.8420024E-3,8.862887E-3,7.72286E-3,1.4814341E-3,1.5814694E-2,9.355797E-3],"split_indices":[25,57,63,10,45,51,64,0,0,0,0,0,0,0,0],"split_type":[0,0,0,0,0,0,0,0,0,0,0,0,0,0,0],"sum_hessian":[6.83E2,6.19E2,6.4E1,4.3E2,1.89E2,3.7E1,2.7E1,1.25E2,3.05E2,1.78E2,1.1E1,3.5E1,2E0,3E0,2.4E1],"tree_param":{"num_deleted":"0","num_feature":"78","num_nodes":"15","size_leaf_vector":"0"}},{"base_weights":[2.091594E-1,1.1421728E-1,2.1363385E-1,1.4400478E-1,4.8684783E-2,2.0960732E-1,3.1896794E-1,2.3734443E-1,1.2926695E-1,6.857693E-3,6.661068E-2,1.9142622E-1,2.3159662E-1,2.7562E-1,4.110823E-1],"categories":[],"categories_nodes":[],"categories_segments":[],"categories_sizes":[],"default_left":[1,1,1,1,1,1,1,0,0,0,0,0,0,0,0],"id":37,"left_children":[1,3,5,7,9,11,13,-1,-1,-1,-1,-1,-1,-1,-1],"loss_changes":[3.020439E-1,6.246558E-2,2.8798485E-1,3.0263722E-2,7.4978806E-3,2.6146317E-1,9.982395E-2,0E0,0E0,0E0,0E0,0E0,0E0,0E0,0E0],"parents":[2147483647,0,0,1,1,2,2,3,3,4,4,5,5,6,6],"right_children":[2,4,6,8,10,12,14,-1,-1,-1,-1,-1,-1,-1,-1],"split_conditions":[2.1264915E0,1.4058199E0,6.1098235E-3,7.8461537E0,3.3591778E-3,3.486392E2,5.615887E-3,7.1203327E-3,3.8780083E-3,2.0573079E-4,1.9983202E-3,5.7427865E-3,6.9478983E-3,8.2686E-3,1.2332468E-2],"split_indices":[36,19,30,76,31,47,31,0,0,0,0,0,0,0,0],"split_type":[0,0,0,0,0,0,0,0,0,0,0,0,0,0,0],"sum_hessian":[7.11E2,3.2E1,6.79E2,2.2E1,1E1,6.54E2,2.5E1,3E0,1.9E1,3E0,7E0,3.58E2,2.96E2,1.7E1,8E0],"tree_param":{"num_deleted":"0","num_feature":"78","num_nodes":"15","size_leaf_vector":"0"}},{"base_weights":[2.0053935E-1,2.111582E-1,1.6849542E-1,1.9138883E-1,2.3945369E-1,1.1890018E-1,1.8744645E-1,1.7821957E-1,2.5325945E-1,2.3297934E-1,3.2405198E-1,9.2344314E-2,1.9635479E-1,3.437408E-1,1.808238E-1],"categories":[],"categories_nodes":[],"categories_segments":[],"categories_sizes":[],"default_left":[1,1,1,1,1,1,1,0,0,0,0,0,0,0,0],"id":38,"left_children":[1,3,5,7,9,11,13,-1,-1,-1,-1,-1,-1,-1,-1],"loss_changes":[2.3240471E-1,2.8696442E-1,1.5977907E-1,2.460661E-1,1.15569115E-1,9.667313E-2,1.2731552E-1,0E0,0E0,0E0,0E0,0E0,0E0,0E0,0E0],"parents":[2147483647,0,0,1,1,2,2,3,3,4,4,5,5,6,6],"right_children":[2,4,6,8,10,12,14,-1,-1,-1,-1,-1,-1,-1,-1],"split_conditions":[5.540874E5,2.729145E0,1.61125E3,6.325894E2,1.6379055E3,4.0353558E2,1.0769737E0,5.346587E-3,7.597783E-3,6.9893803E-3,9.7215595E-3,2.7703294E-3,5.8906437E-3,1.0312224E-2,5.424714E-3],"split_indices":[48,36,26,28,25,47,21,0,0,0,0,0,0,0,0],"split_type":[0,0,0,0,0,0,0,0,0,0,0,0,0,0,0],"sum_hessian":[6.83E2,5.13E2,1.7E2,3.02E2,2.11E2,4.7E1,1.23E2,2.49E2,5.3E1,1.96E2,1.5E1,3.5E1,1.2E1,5E0,1.18E2],"tree_param":{"num_deleted":"0","num_feature":"78","num_nodes":"15","size_leaf_vector":"0"}},{"base_weights":[1.9450574E-1,1.7228526E-1,2.1563934E-1,1.7687973E-1,4.2874187E-2,2.0388307E-1,2.6845482E-1,1.6641006E-1,2.148861E-1,-3.793637E-3,8.954201E-2,1.7833486E-1,2.2522515E-1,3.7620503E-2,2.7927518E-1],"categories":[],"categories_nodes":[],"categories_segments":[],"categories_sizes":[],"default_left":[1,1,1,1,1,1,1,0,0,0,0,0,0,0,0],"id":39,"left_children":[1,3,5,7,9,11,13,-1,-1,-1,-1,-1,-1,-1,-1],"loss_changes":[3.3717155E-1,2.0810223E-1,2.2849655E-1,1.3449478E-1,2.6134627E-2,1.6412067E-1,1.6734648E-1,0E0,0E0,0E0,0E0,0E0,0E0,0E0,0E0],"parents":[2147483647,0,0,1,1,2,2,3,3,4,4,5,5,6,6],"right_children":[2,4,6,8,10,12,14,-1,-1,-1,-1,-1,-1,-1,-1],"split_conditions":[2.6928701E0,7.12488E5,3.493356E0,5.3973984E1,8.425E5,8.43422E1,9.8873266E4,4.9923016E-3,6.4465827E-3,-1.1380911E-4,2.6862603E-3,5.350046E-3,6.7567546E-3,1.1286151E-3,8.378255E-3],"split_indices":[36,50,16,9,0,56,58,0,0,0,0,0,0,0,0],"split_type":[0,0,0,0,0,0,0,0,0,0,0,0,0,0,0],"sum_hessian":[7.18E2,3.5E2,3.68E2,3.38E2,1.2E1,3.01E2,6.7E1,2.65E2,7.3E1,6E0,6E0,1.37E2,1.64E2,3E0,6.4E1],"tree_param":{"num_deleted":"0","num_feature":"78","num_nodes":"15","size_leaf_vector":"0"}},{"base_weights":[1.882798E-1,1.8029824E-1,2.465547E-1,1.312498E-1,1.8722598E-1,2.2246452E-1,3.4743235E-1,1.2295865E-1,2.7841774E-1,1.322241E-1,1.942326E-1,2.4673748E-1,1.6542308E-1,3.8646516E-1,2.3033391E-1],"categories":[],"categories_nodes":[],"categories_segments":[],"categories_sizes":[],"default_left":[1,1,1,1,1,1,1,0,0,0,0,0,0,0,0],"id":40,"left_children":[1,3,5,7,9,11,13,-1,-1,-1,-1,-1,-1,-1,-1],"loss_changes":[3.204708E-1,2.0591545E-1,2.0170307E-1,9.151447E-2,2.0463371E-1,9.276581E-2,7.3131084E-2,0E0,0E0,0E0,0E0,0E0,0E0,0E0,0E0],"parents":[2147483647,0,0,1,1,2,2,3,3,4,4,5,5,6,6],"right_children":[2,4,6,8,10,12,14,-1,-1,-1,-1,-1,-1,-1,-1],"split_conditions":[4.6158337E2,4.599287E-3,1.9158206E0,2.9648578E5,5.247441E1,4.4082556E0,4.19064E5,3.6887594E-3,8.352532E-3,3.9667226E-3,5.826978E-3,7.4021243E-3,4.9626925E-3,1.1593955E-2,6.910017E-3],"split_indices":[47,33,19,49,9,10,62,0,0,0,0,0,0,0,0],"split_type":[0,0,0,0,0,0,0,0,0,0,0,0,0,0,0],"sum_hessian":[6.89E2,6.06E2,8.3E1,7.5E1,5.31E2,6.7E1,1.6E1,7.1E1,4E0,6E1,4.71E2,4.7E1,2E1,1.2E1,4E0],"tree_param":{"num_deleted":"0","num_feature":"78","num_nodes":"15","size_leaf_vector":"0"}},{"base_weights":[1.7943034E-1,1.6137479E-1,1.9795285E-1,1.5994695E-1,4.148177E-1,1.01527214E-1,2.0321243E-1,1.6425318E-1,6.233896E-2,4.677745E-1,3.6186087E-1,2.0768231E-1,8.0296196E-2,3.292625E-1,2.0008075E-1],"categories":[],"categories_nodes":[],"categories_segments":[],"categories_sizes":[],"default_left":[1,1,1,1,1,1,1,0,0,0,0,0,0,0,0],"id":41,"left_children":[1,3,5,7,9,11,13,-1,-1,-1,-1,-1,-1,-1,-1],"loss_changes":[2.357769E-1,1.2919044E-1,1.7649078E-1,1.4921474E-1,5.608827E-3,4.0568054E-2,1.3026714E-1,0E0,0E0,0E0,0E0,0E0,0E0,0E0,0E0],"parents":[2147483647,0,0,1,1,2,2,3,3,4,4,5,5,6,6],"right_children":[2,4,6,8,10,12,14,-1,-1,-1,-1,-1,-1,-1,-1],"split_conditions":[1.7746468E0,3.1339328E0,9.2956595E-2,7.10928E5,5.15E1,1.53010025E1,6.240059E-1,4.927595E-3,1.8701687E-3,1.4033235E-2,1.0855826E-2,6.2304693E-3,2.4088859E-3,9.8778745E-3,6.0024224E-3],"split_indices":[41,36,71,50,1,76,40,0,0,0,0,0,0,0,0],"split_type":[0,0,0,0,0,0,0,0,0,0,0,0,0,0,0],"sum_hessian":[7.05E2,3.57E2,3.48E2,3.55E2,2E0,1.8E1,3.3E2,3.4E2,1.5E1,1E0,1E0,3E0,1.5E1,8E0,3.22E2],"tree_param":{"num_deleted":"0","num_feature":"78","num_nodes":"15","size_leaf_vector":"0"}},{"base_weights":[1.786016E-1,1.5387952E-1,1.9559419E-1,1.4340961E-1,2.0382972E-1,1.8889755E-1,2.819577E-1,1.6620586E-2,1.4740746E-1,1.7569555E-1,3.107396E-1,1.686265E-1,2.3026367E-1,2.4094065E-1,4.1086835E-1],"categories":[],"categories_nodes":[],"categories_segments":[],"categories_sizes":[],"default_left":[1,1,1,1,1,1,1,0,0,0,0,0,0,0,0],"id":42,"left_children":[1,3,5,7,9,11,13,-1,-1,-1,-1,-1,-1,-1,-1],"loss_changes":[2.856617E-1,1.4486408E-1,2.3307323E-1,1.1607647E-1,1.4437532E-1,3.1361198E-1,1.5333843E-1,0E0,0E0,0E0,0E0,0E0,0E0,0E0,0E0],"parents":[2147483647,0,0,1,1,2,2,3,3,4,4,5,5,6,6],"right_children":[2,4,6,8,10,12,14,-1,-1,-1,-1,-1,-1,-1,-1],"split_conditions":[2.6196692E0,2.6492144E5,1.5989861E3,2.1684167E-3,5.15E1,2.5870435E2,2.5537122E2,4.9861753E-4,4.4222237E-3,5.2708667E-3,9.322188E-3,5.0587947E-3,6.9079096E-3,7.2282194E-3,1.2326051E-2],"split_indices":[36,49,25,34,1,46,46,0,0,0,0,0,0,0,0],"split_type":[0,0,0,0,0,0,0,0,0,0,0,0,0,0,0],"sum_hessian":[6.8E2,2.77E2,4.03E2,2.29E2,4.8E1,3.74E2,2.9E1,7E0,2.22E2,3.8E1,1E1,2.51E2,1.23E2,2.2E1,7E0],"tree_param":{"num_deleted":"0","num_feature":"78","num_nodes":"15","size_leaf_vector":"0"}},{"base_weights":[1.7506886E-1,1.5830536E-1,1.9982357E-1,1.6661397E-1,1.1771186E-1,2.4290779E-1,1.821982E-1,1.3172348E-1,1.7511457E-1,1.3099459E-1,-2.3970595E-2,1.9100115E-1,2.7344114E-1,1.6224927E-1,2.249459E-1],"categories":[],"categories_nodes":[],"categories_segments":[],"categories_sizes":[],"default_left":[1,1,1,1,1,1,1,0,0,0,0,0,0,0,0],"id":43,"left_children":[1,3,5,7,9,11,13,-1,-1,-1,-1,-1,-1,-1,-1],"loss_changes":[2.867489E-1,1.3895798E-1,2.1186543E-1,1.01433754E-1,1.3173503E-1,1.2837553E-1,1.6884851E-1,0E0,0E0,0E0,0E0,0E0,0E0,0E0,0E0],"parents":[2147483647,0,0,1,1,2,2,3,3,4,4,5,5,6,6],"right_children":[2,4,6,8,10,12,14,-1,-1,-1,-1,-1,-1,-1,-1],"split_conditions":[3.6682758E2,6.35025E2,1.117876E0,2.3811948E0,7.9022408E0,4.902938E-3,1.9323972E0,3.951704E-3,5.253437E-3,3.9298376E-3,-7.191178E-4,5.7300343E-3,8.203234E-3,4.867478E-3,6.748377E-3],"split_indices":[47,51,12,36,10,33,19,0,0,0,0,0,0,0,0],"split_type":[0,0,0,0,0,0,0,0,0,0,0,0,0,0,0],"sum_hessian":[6.91E2,4.12E2,2.79E2,3.42E2,7E1,8.1E1,1.98E2,6.7E1,2.75E2,6.4E1,6E0,3E1,5.1E1,1.35E2,6.3E1],"tree_param":{"num_deleted":"0","num_feature":"78","num_nodes":"15","size_leaf_vector":"0"}},{"base_weights":[1.6492945E-1,1.3927643E-1,1.845502E-1,1.3744402E-1,4.2055055E-1,1.7054869E-1,2.180832E-1,8.635342E-2,1.4380695E-1,3.375007E-1,5.036004E-1,1.4248401E-1,1.9155416E-1,4.2198202E-1,2.1280997E-1],"categories":[],"categories_nodes":[],"categories_segments":[],"categories_sizes":[],"default_left":[1,1,1,1,1,1,1,0,0,0,0,0,0,0,0],"id":44,"left_children":[1,3,5,7,9,11,13,-1,-1,-1,-1,-1,-1,-1,-1],"loss_changes":[3.5887527E-1,1.5926075E-1,1.8968296E-1,9.980106E-2,1.3794541E-2,1.6801071E-1,1.2794971E-1,0E0,0E0,0E0,0E0,0E0,0E0,0E0,0E0],"parents":[2147483647,0,0,1,1,2,2,3,3,4,4,5,5,6,6],"right_children":[2,4,6,8,10,12,14,-1,-1,-1,-1,-1,-1,-1,-1],"split_conditions":[1.6615189E0,3.0723315E2,5.3933655E1,5.2412094E1,4.65E1,2.397038E2,6.454449E0,2.5906025E-3,4.3142084E-3,1.01250205E-2,1.5108013E-2,4.27452E-3,5.7466244E-3,1.265946E-2,6.3842987E-3],"split_indices":[37,52,9,9,1,46,55,0,0,0,0,0,0,0,0],"split_type":[0,0,0,0,0,0,0,0,0,0,0,0,0,0,0],"sum_hessian":[7.13E2,3.09E2,4.04E2,3.07E2,2E0,2.85E2,1.19E2,3.4E1,2.73E2,1E0,1E0,1.22E2,1.63E2,3E0,1.16E2],"tree_param":{"num_deleted":"0","num_feature":"78","num_nodes":"15","size_leaf_vector":"0"}},{"base_weights":[1.6011874E-1,1.7306893E-1,1.2780741E-1,1.5941717E-1,1.9488357E-1,2.7653068E-1,1.21674486E-1,1.0093417E-1,1.6734344E-1,1.9016872E-1,3.2083744E-1,5.1991224E-2,3.0860776E-1,3.088122E-2,1.2766086E-1],"categories":[],"categories_nodes":[],"categories_segments":[],"categories_sizes":[],"default_left":[1,1,1,1,1,1,1,0,0,0,0,0,0,0,0],"id":45,"left_children":[1,3,5,7,9,11,13,-1,-1,-1,-1,-1,-1,-1,-1],"loss_changes":[2.954178E-1,1.5009499E-1,1.8424582E-1,1.437006E-1,1.1520767E-1,5.7620525E-2,1.0544324E-1,0E0,0E0,0E0,0E0,0E0,0E0,0E0,0E0],"parents":[2147483647,0,0,1,1,2,2,3,3,4,4,5,5,6,6],"right_children":[2,4,6,8,10,12,14,-1,-1,-1,-1,-1,-1,-1,-1],"split_conditions":[4.733324E5,2.5908716E2,4.08472E2,1.3844619E0,2.1283498E0,9.775435E-1,2.0930703E0,3.0280252E-3,5.020303E-3,5.7050614E-3,9.625123E-3,1.5597367E-3,9.258232E-3,9.2643657E-4,3.8298257E-3],"split_indices":[57,46,51,19,41,12,36,0,0,0,0,0,0,0,0],"split_type":[0,0,0,0,0,0,0,0,0,0,0,0,0,0,0],"sum_hessian":[7.06E2,5.04E2,2.02E2,3.1E2,1.94E2,8E0,1.94E2,3.7E1,2.73E2,1.87E2,7E0,1E0,7E0,1.2E1,1.82E2],"tree_param":{"num_deleted":"0","num_feature":"78","num_nodes":"15","size_leaf_vector":"0"}},{"base_weights":[1.5232281E-1,1.6825762E-1,1.22120015E-1,1.6123445E-1,2.2751573E-1,1.11079425E-1,2.0880912E-1,7.802916E-2,1.6578473E-1,2.6151696E-1,1.4494134E-1,1.0600306E-1,2.1362194E-1,1.7347823E-1,2.9271996E-1],"categories":[],"categories_nodes":[],"categories_segments":[],"categories_sizes":[],"default_left":[1,1,1,1,1,1,1,0,0,0,0,0,0,0,0],"id":46,"left_children":[1,3,5,7,9,11,13,-1,-1,-1,-1,-1,-1,-1,-1],"loss_changes":[3.3304405E-1,1.8852901E-1,2.2874665E-1,1.5333557E-1,1.3476634E-1,1.1035514E-1,8.004546E-2,0E0,0E0,0E0,0E0,0E0,0E0,0E0,0E0],"parents":[2147483647,0,0,1,1,2,2,3,3,4,4,5,5,6,6],"right_children":[2,4,6,8,10,12,14,-1,-1,-1,-1,-1,-1,-1,-1],"split_conditions":[4.6800306E5,3.1660733E0,2.8503098E0,1.8179523E2,4.40232E5,5.0287567E2,1.7356093E0,2.3408749E-3,4.973542E-3,7.845509E-3,4.3482403E-3,3.1800917E-3,6.4086583E-3,5.204347E-3,8.781599E-3],"split_indices":[57,36,38,47,59,47,37,0,0,0,0,0,0,0,0],"split_type":[0,0,0,0,0,0,0,0,0,0,0,0,0,0,0],"sum_hessian":[6.92E2,4.53E2,2.39E2,4.05E2,4.8E1,2.12E2,2.7E1,2.1E1,3.84E2,3.4E1,1.4E1,2.02E2,1E1,1.9E1,8E0],"tree_param":{"num_deleted":"0","num_feature":"78","num_nodes":"15","size_leaf_vector":"0"}},{"base_weights":[1.5089475E-1,1.4416112E-1,1.9904803E-1,1.2636921E-1,1.6346082E-1,1.6466156E-1,2.4248356E-1,7.3029473E-3,1.2942219E-1,1.4697704E-1,2.0853043E-1,1.8467103E-1,8.862554E-2,9.293915E-2,2.6007703E-1],"categories":[],"categories_nodes":[],"categories_segments":[],"categories_sizes":[],"default_left":[1,1,1,1,1,1,1,0,0,0,0,0,0,0,0],"id":47,"left_children":[1,3,5,7,9,11,13,-1,-1,-1,-1,-1,-1,-1,-1],"loss_changes":[2.2729683E-1,2.1117687E-1,1.2844896E-1,1.1632252E-1,2.1916103E-1,7.302916E-2,9.997821E-2,0E0,0E0,0E0,0E0,0E0,0E0,0E0,0E0],"parents":[2147483647,0,0,1,1,2,2,3,3,4,4,5,5,6,6],"right_children":[2,4,6,8,10,12,14,-1,-1,-1,-1,-1,-1,-1,-1],"split_conditions":[4.6205463E2,4.107637E-3,6.698718E-1,2.2060887E2,1.4701711E3,2.9423077E0,1.1901984E5,2.1908841E-4,3.8826657E-3,4.409311E-3,6.2559126E-3,5.5401307E-3,2.6587662E-3,2.7881744E-3,7.802311E-3],"split_indices":[47,31,63,45,25,15,61,0,0,0,0,0,0,0,0],"split_type":[0,0,0,0,0,0,0,0,0,0,0,0,0,0,0],"sum_hessian":[7.01E2,6.15E2,8.6E1,3.2E2,2.95E2,4.8E1,3.8E1,8E0,3.12E2,2.16E2,7.9E1,3.8E1,1E1,4E0,3.4E1],"tree_param":{"num_deleted":"0","num_feature":"78","num_nodes":"15","size_leaf_vector":"0"}},{"base_weights":[1.4498283E-1,1.3159409E-1,1.7278558E-1,1.4635849E-1,1.1440362E-1,1.6884518E-1,3.1464013E-1,1.3729556E-1,2.2374198E-1,8.63563E-2,1.455056E-1,7.739842E-3,1.718849E-1,2.2956105E-1,3.997192E-1],"categories":[],"categories_nodes":[],"categories_segments":[],"categories_sizes":[],"default_left":[1,1,1,1,1,1,1,0,0,0,0,0,0,0,0],"id":48,"left_children":[1,3,5,7,9,11,13,-1,-1,-1,-1,-1,-1,-1,-1],"loss_changes":[2.542429E-1,1.1700487E-1,1.24090195E-1,1.7392778E-1,1.858058E-1,1.05778694E-1,4.3430686E-2,0E0,0E0,0E0,0E0,0E0,0E0,0E0,0E0],"parents":[2147483647,0,0,1,1,2,2,3,3,4,4,5,5,6,6],"right_children":[2,4,6,8,10,12,14,-1,-1,-1,-1,-1,-1,-1,-1],"split_conditions":[1.3525282E3,5.6532886E2,3.6322766E2,4.8655862E5,1.7958254E0,6.502905E-1,3.2157397E0,4.1188668E-3,6.7122593E-3,2.5906889E-3,4.365168E-3,2.3219525E-4,5.156547E-3,6.886831E-3,1.1991576E-2],"split_indices":[25,51,46,48,41,64,16,0,0,0,0,0,0,0,0],"split_type":[0,0,0,0,0,0,0,0,0,0,0,0,0,0,0],"sum_hessian":[6.83E2,4.61E2,2.22E2,2.48E2,2.13E2,2.16E2,6E0,2.22E2,2.6E1,1.12E2,1.01E2,4E0,2.12E2,3E0,3E0],"tree_param":{"num_deleted":"0","num_feature":"78","num_nodes":"15","size_leaf_vector":"0"}},{"base_weights":[1.4438832E-1,1.3297275E-1,1.7376749E-1,1.0407042E-1,1.4388965E-1,3.952723E-1,1.7149565E-1,2.7538793E-2,1.14734665E-1,1.3383155E-1,1.925837E-1,4.619211E-1,3.2862353E-1,2.5229332E-1,1.6572438E-1],"categories":[],"categories_nodes":[],"categories_segments":[],"categories_sizes":[],"default_left":[1,1,1,1,1,1,1,0,0,0,0,0,0,0,0],"id":49,"left_children":[1,3,5,7,9,11,13,-1,-1,-1,-1,-1,-1,-1,-1],"loss_changes":[2.3610783E-1,1.5997028E-1,9.91354E-2,1.1344516E-1,1.8023586E-1,8.884102E-3,9.092951E-2,0E0,0E0,0E0,0E0,0E0,0E0,0E0,0E0],"parents":[2147483647,0,0,1,1,2,2,3,3,4,4,5,5,6,6],"right_children":[2,4,6,8,10,12,14,-1,-1,-1,-1,-1,-1,-1,-1],"split_conditions":[5.8328398E-3,5.3044228E1,1.3530206E2,1.2348E4,8.705E5,6.68E5,5.873721E-3,8.261638E-4,3.44204E-3,4.014946E-3,5.777511E-3,1.3857633E-2,9.858706E-3,7.5687994E-3,4.9717315E-3],"split_indices":[35,9,52,62,0,0,35,0,0,0,0,0,0,0,0],"split_type":[0,0,0,0,0,0,0,0,0,0,0,0,0,0,0],"sum_hessian":[7.04E2,5.07E2,1.97E2,1.39E2,3.68E2,2E0,1.95E2,1.7E1,1.22E2,3.05E2,6.3E1,1E0,1E0,1.3E1,1.82E2],"tree_param":{"num_deleted":"0","num_feature":"78","num_nodes":"15","size_leaf_vector":"0"}},{"base_weights":[1.395487E-1,1.529129E-1,1.0712933E-1,1.4913674E-1,2.3237643E-1,2.7878976E-1,1.0377985E-1,8.639025E-2,1.5343066E-1,1.6208223E-1,2.6986668E-1,2.2736989E-1,4.3304932E-1,-3.5113594E-4,1.1025432E-1],"categories":[],"categories_nodes":[],"categories_segments":[],"categories_sizes":[],"default_left":[1,1,1,1,1,1,1,0,0,0,0,0,0,0,0],"id":50,"left_children":[1,3,5,7,9,11,13,-1,-1,-1,-1,-1,-1,-1,-1],"loss_changes":[3.102131E-1,1.5213394E-1,1.2016916E-1,1.3040352E-1,6.0612917E-2,3.172803E-2,1.3820934E-1,0E0,0E0,0E0,0E0,0E0,0E0,0E0,0E0],"parents":[2147483647,0,0,1,1,2,2,3,3,4,4,5,5,6,6],"right_children":[2,4,6,8,10,12,14,-1,-1,-1,-1,-1,-1,-1,-1],"split_conditions":[4.757616E5,1.6609955E3,2.983685E5,1.8589018E2,1.6182873E1,5E-1,2.5458316E2,2.5917075E-3,4.6029193E-3,4.862467E-3,8.096E-3,6.8210964E-3,1.299148E-2,-1.0534078E-5,3.3076294E-3],"split_indices":[57,25,48,47,76,6,45,0,0,0,0,0,0,0,0],"split_type":[0,0,0,0,0,0,0,0,0,0,0,0,0,0,0],"sum_hessian":[7.16E2,5.07E2,2.09E2,4.84E2,2.3E1,4E0,2.05E2,3.1E1,4.53E2,8E0,1.5E1,3E0,1E0,1.2E1,1.93E2],"tree_param":{"num_deleted":"0","num_feature":"78","num_nodes":"15","size_leaf_vector":"0"}},{"base_weights":[1.3578644E-1,1.3093556E-1,1.9865762E-1,1.272243E-1,2.2157626E-1,2.1071094E-1,5.80434E-3,1.403517E-1,1.092476E-1,2.812804E-1,1.6187212E-1,1.0951728E-1,2.3094968E-1,-5.7652235E-2,3.7532628E-2],"categories":[],"categories_nodes":[],"categories_segments":[],"categories_sizes":[],"default_left":[1,1,1,1,1,1,1,0,0,0,0,0,0,0,0],"id":51,"left_children":[1,3,5,7,9,11,13,-1,-1,-1,-1,-1,-1,-1,-1],"loss_changes":[2.1714592E-1,2.2235489E-1,1.1855078E-1,1.4985275E-1,9.267926E-2,9.8305464E-2,6.040105E-3,0E0,0E0,0E0,0E0,0E0,0E0,0E0,0E0],"parents":[2147483647,0,0,1,1,2,2,3,3,4,4,5,5,6,6],"right_children":[2,4,6,8,10,12,14,-1,-1,-1,-1,-1,-1,-1,-1],"split_conditions":[3.1660733E0,7.4235364E2,4.05276E5,7.3273814E-1,3.2260096E0,1.4230769E1,4.5E0,4.210551E-3,3.277428E-3,8.438412E-3,4.8561636E-3,3.2855181E-3,6.9284905E-3,-1.7295671E-3,1.1259788E-3],"split_indices":[36,28,62,14,10,76,8,0,0,0,0,0,0,0,0],"split_type":[0,0,0,0,0,0,0,0,0,0,0,0,0,0,0],"sum_hessian":[7.12E2,6.61E2,5.1E1,6.35E2,2.6E1,4.8E1,3E0,3.67E2,2.68E2,1.3E1,1.3E1,8E0,4E1,1E0,2E0],"tree_param":{"num_deleted":"0","num_feature":"78","num_nodes":"15","size_leaf_vector":"0"}},{"base_weights":[1.3193361E-1,1.1872012E-1,1.6888899E-1,5.0681185E-2,1.222795E-1,3.2435158E-1,1.654909E-1,3.0712413E-2,2.0377511E-1,1.1133651E-1,1.4532818E-1,4.191898E-1,3.9836884E-2,1.5097211E-1,2.0017469E-1],"categories":[],"categories_nodes":[],"categories_segments":[],"categories_sizes":[],"default_left":[1,1,1,1,1,1,1,0,0,0,0,0,0,0,0],"id":52,"left_children":[1,3,5,7,9,11,13,-1,-1,-1,-1,-1,-1,-1,-1],"loss_changes":[3.466997E-1,1.2665844E-1,9.8787785E-2,7.948454E-2,1.2535429E-1,1.07931465E-1,9.2152596E-2,0E0,0E0,0E0,0E0,0E0,0E0,0E0,0E0],"parents":[2147483647,0,0,1,1,2,2,3,3,4,4,5,5,6,6],"right_children":[2,4,6,8,10,12,14,-1,-1,-1,-1,-1,-1,-1,-1],"split_conditions":[5.849311E-3,2.1264915E0,6.05E5,9.0734406E1,4.0421686E2,4.54508E0,3.5598645E0,9.213724E-4,6.113253E-3,3.340095E-3,4.359845E-3,1.2575694E-2,1.1951064E-3,4.5291632E-3,6.0052406E-3],"split_indices":[35,36,0,56,47,10,16,0,0,0,0,0,0,0,0],"split_type":[0,0,0,0,0,0,0,0,0,0,0,0,0,0,0],"sum_hessian":[7.1E2,5.23E2,1.87E2,2.6E1,4.97E2,4E0,1.83E2,2.3E1,3E0,3.37E2,1.6E2,3E0,1E0,1.29E2,5.4E1],"tree_param":{"num_deleted":"0","num_feature":"78","num_nodes":"15","size_leaf_vector":"0"}},{"base_weights":[1.2889625E-1,1.4457649E-1,1.11495E-1,1.1832337E-1,1.6339949E-1,9.930865E-2,1.4865588E-1,1.3869505E-1,8.437057E-2,8.354513E-2,1.7217928E-1,6.2020894E-2,1.0807127E-1,1.2087269E-1,1.9119887E-1],"categories":[],"categories_nodes":[],"categories_segments":[],"categories_sizes":[],"default_left":[1,1,1,1,1,1,1,0,0,0,0,0,0,0,0],"id":53,"left_children":[1,3,5,7,9,11,13,-1,-1,-1,-1,-1,-1,-1,-1],"loss_changes":[1.8881702E-1,1.798749E-1,1.4853668E-1,1.05134726E-1,1.4863443E-1,8.070421E-2,9.574044E-2,0E0,0E0,0E0,0E0,0E0,0E0,0E0,0E0],"parents":[2147483647,0,0,1,1,2,2,3,3,4,4,5,5,6,6],"right_children":[2,4,6,8,10,12,14,-1,-1,-1,-1,-1,-1,-1,-1],"split_conditions":[6.959325E-1,1.2631627E3,2.8342237E0,4.99225E2,1.9214393E0,1.4988069E5,1.7385211E0,4.1608512E-3,2.531117E-3,2.506354E-3,5.1653786E-3,1.8606267E-3,3.2421378E-3,3.6261806E-3,5.735966E-3],"split_indices":[14,25,38,51,38,60,37,0,0,0,0,0,0,0,0],"split_type":[0,0,0,0,0,0,0,0,0,0,0,0,0,0,0],"sum_hessian":[6.92E2,3.64E2,3.28E2,1.52E2,2.12E2,2.47E2,8.1E1,9.5E1,5.7E1,2.1E1,1.91E2,4.7E1,2E2,4.9E1,3.2E1],"tree_param":{"num_deleted":"0","num_feature":"78","num_nodes":"15","size_leaf_vector":"0"}},{"base_weights":[1.278692E-1,1.2183952E-1,1.7795578E-1,1.3553044E-1,1.0358497E-1,2.6367822E-1,1.5828177E-1,7.42787E-2,1.4137292E-1,1.831014E-1,9.8851845E-2,2.0003329E-1,3.2732317E-1,2.3899171E-1,1.3851607E-1],"categories":[],"categories_nodes":[],"categories_segments":[],"categories_sizes":[],"default_left":[1,1,1,1,1,1,1,0,0,0,0,0,0,0,0],"id":54,"left_children":[1,3,5,7,9,11,13,-1,-1,-1,-1,-1,-1,-1,-1],"loss_changes":[2.1080017E-1,1.5570068E-1,1.2648797E-1,1.2739897E-1,1.00488186E-1,5.6709528E-2,9.731257E-2,0E0,0E0,0E0,0E0,0E0,0E0,0E0,0E0],"parents":[2147483647,0,0,1,1,2,2,3,3,4,4,5,5,6,6],"right_children":[2,4,6,8,10,12,14,-1,-1,-1,-1,-1,-1,-1,-1],"split_conditions":[4.6558783E2,4.4658E5,8.1203766E1,2.4461153E2,3.4800853E5,2.3193195E5,7.999111E0,2.2283609E-3,4.2411876E-3,5.493042E-3,2.9655553E-3,6.0009984E-3,9.819695E-3,7.169751E-3,4.155482E-3],"split_indices":[47,59,54,45,48,49,55,0,0,0,0,0,0,0,0],"split_type":[0,0,0,0,0,0,0,0,0,0,0,0,0,0,0],"sum_hessian":[6.98E2,6.23E2,7.5E1,3.56E2,2.67E2,1.4E1,6.1E1,3.1E1,3.25E2,1.5E1,2.52E2,7E0,7E0,1.2E1,4.9E1],"tree_param":{"num_deleted":"0","num_feature":"78","num_nodes":"15","size_leaf_vector":"0"}},{"base_weights":[1.18546866E-1,6.057882E-2,1.2472763E-1,1.3066904E-1,2.3088701E-2,1.14005096E-1,1.5497577E-1,9.0681024E-2,2.0564656E-1,-2.1458168E-2,5.8354974E-2,1.0930199E-1,1.7443281E-1,1.2412619E-1,1.898845E-1],"categories":[],"categories_nodes":[],"categories_segments":[],"categories_sizes":[],"default_left":[1,1,1,1,1,1,1,0,0,0,0,0,0,0,0],"id":55,"left_children":[1,3,5,7,9,11,13,-1,-1,-1,-1,-1,-1,-1,-1],"loss_changes":[2.4542618E-1,1.7342757E-1,2.0076466E-1,6.895867E-2,6.755309E-2,1.2987804E-1,1.7446065E-1,0E0,0E0,0E0,0E0,0E0,0E0,0E0,0E0],"parents":[2147483647,0,0,1,1,2,2,3,3,4,4,5,5,6,6],"right_children":[2,4,6,8,10,12,14,-1,-1,-1,-1,-1,-1,-1,-1],"split_conditions":[5.2259613E1,4.7630853E2,1.389248E3,1.0964928E0,9.5E0,5.25E1,3.8690372E2,2.7204307E-3,6.1693965E-3,-6.43745E-4,1.7506492E-3,3.2790597E-3,5.232984E-3,3.7237855E-3,5.6965346E-3],"split_indices":[9,51,25,64,72,1,45,0,0,0,0,0,0,0,0],"split_type":[0,0,0,0,0,0,0,0,0,0,0,0,0,0,0],"sum_hessian":[6.85E2,6.6E1,6.19E2,2.3E1,4.3E1,4.57E2,1.62E2,1.5E1,8E0,1.9E1,2.4E1,4.24E2,3.3E1,8.6E1,7.6E1],"tree_param":{"num_deleted":"0","num_feature":"78","num_nodes":"15","size_leaf_vector":"0"}},{"base_weights":[1.1460575E-1,8.2966916E-2,1.24578215E-1,7.821021E-2,2.3803551E-1,1.7621106E-1,1.18151344E-1,7.108728E-2,1.6784044E-1,4.2169616E-1,1.1559508E-1,3.94115E-1,1.6453762E-1,1.04790725E-1,1.4512788E-1],"categories":[],"categories_nodes":[],"categories_segments":[],"categories_sizes":[],"default_left":[1,1,1,1,1,1,1,0,0,0,0,0,0,0,0],"id":56,"left_children":[1,3,5,7,9,11,13,-1,-1,-1,-1,-1,-1,-1,-1],"loss_changes":[2.211771E-1,1.2391949E-1,1.7687035E-1,1.0406411E-1,1.1243743E-1,1.5007746E-1,1.7084026E-1,0E0,0E0,0E0,0E0,0E0,0E0,0E0,0E0],"parents":[2147483647,0,0,1,1,2,2,3,3,4,4,5,5,6,6],"right_children":[2,4,6,8,10,12,14,-1,-1,-1,-1,-1,-1,-1,-1],"split_conditions":[2.4624648E0,6.38388E5,3.26868E5,3.5212534E-3,1.098597E0,1.533386E5,2.5418738E2,2.1326183E-3,5.035213E-3,1.2650885E-2,3.4678522E-3,1.182345E-2,4.9361284E-3,3.1437217E-3,4.353836E-3],"split_indices":[36,59,59,34,12,49,52,0,0,0,0,0,0,0,0],"split_type":[0,0,0,0,0,0,0,0,0,0,0,0,0,0,0],"sum_hessian":[7.01E2,1.68E2,5.33E2,1.63E2,5E0,5.9E1,4.74E2,1.51E2,1.2E1,2E0,3E0,3E0,5.6E1,3.17E2,1.57E2],"tree_param":{"num_deleted":"0","num_feature":"78","num_nodes":"15","size_leaf_vector":"0"}},{"base_weights":[1.1168881E-1,1.262077E-1,9.128518E-2,1.1761857E-1,1.6879044E-1,8.812482E-2,2.0703308E-1,1.0642824E-1,1.5276934E-1,1.5358262E-1,2.366407E-1,9.1013834E-2,-2.991185E-2,1.3744676E-1,2.766194E-1],"categories":[],"categories_nodes":[],"categories_segments":[],"categories_sizes":[],"default_left":[1,1,1,1,1,1,1,0,0,0,0,0,0,0,0],"id":57,"left_children":[1,3,5,7,9,11,13,-1,-1,-1,-1,-1,-1,-1,-1],"loss_changes":[2.1447563E-1,1.5471172E-1,1.10106945E-1,1.384592E-1,7.32615E-2,9.991574E-2,3.8738042E-2,0E0,0E0,0E0,0E0,0E0,0E0,0E0,0E0],"parents":[2147483647,0,0,1,1,2,2,3,3,4,4,5,5,6,6],"right_children":[2,4,6,8,10,12,14,-1,-1,-1,-1,-1,-1,-1,-1],"split_conditions":[4.45716E5,2.3488468E1,5.425039E2,1.9273326E0,6.584099E0,8.889973E0,2E0,3.1928471E-3,4.5830803E-3,4.6074786E-3,7.099221E-3,2.730415E-3,-8.973555E-4,4.1234028E-3,8.298582E-3],"split_indices":[59,55,45,19,10,10,3,0,0,0,0,0,0,0,0],"split_type":[0,0,0,0,0,0,0,0,0,0,0,0,0,0,0],"sum_hessian":[7.24E2,4.23E2,3.01E2,3.52E2,7.1E1,2.93E2,8E0,2.67E2,8.5E1,5.8E1,1.3E1,2.86E2,7E0,4E0,4E0],"tree_param":{"num_deleted":"0","num_feature":"78","num_nodes":"15","size_leaf_vector":"0"}},{"base_weights":[1.1110039E-1,1.449503E-1,9.8937586E-2,3.8043004E-3,1.50379E-1,9.5364295E-2,1.8486683E-1,-5.0625425E-2,4.4626594E-2,4.3353385E-1,1.4723283E-1,5.9722647E-2,1.0351591E-1,1.5591085E-1,3.0792978E-1],"categories":[],"categories_nodes":[],"categories_segments":[],"categories_sizes":[],"default_left":[1,1,1,1,1,1,0,0,0,0,0,0,0,0,0],"id":58,"left_children":[1,3,5,7,9,11,13,-1,-1,-1,-1,-1,-1,-1,-1],"loss_changes":[2.9437256E-1,1.4481878E-1,1.6150808E-1,1.5553622E-2,1.6213512E-1,1.4672136E-1,7.4831605E-2,0E0,0E0,0E0,0E0,0E0,0E0,0E0,0E0],"parents":[2147483647,0,0,1,1,2,2,3,3,4,4,5,5,6,6],"right_children":[2,4,6,8,10,12,14,-1,-1,-1,-1,-1,-1,-1,-1],"split_conditions":[1.4305851E-1,5.698539E-1,6.1062668E-3,1.9083333E0,6.11E5,3.6767745E-1,2.2788462E-1,-1.5187627E-3,1.3387977E-3,1.3006015E-2,4.416985E-3,1.7916794E-3,3.1054772E-3,4.6773255E-3,9.237893E-3],"split_indices":[10,64,30,15,0,69,66,0,0,0,0,0,0,0,0],"split_type":[0,0,0,0,0,0,0,0,0,0,0,0,0,0,0],"sum_hessian":[7.15E2,1.89E2,5.26E2,7E0,1.82E2,5.05E2,2.1E1,3E0,4E0,2E0,1.8E2,9.4E1,4.11E2,1.7E1,4E0],"tree_param":{"num_deleted":"0","num_feature":"78","num_nodes":"15","size_leaf_vector":"0"}},{"base_weights":[1.0436855E-1,9.404495E-2,1.2784481E-1,1.0511675E-1,6.9969386E-2,1.0891806E-1,1.7345515E-1,9.9936634E-2,1.6209793E-1,5.5753887E-2,1.114936E-1,9.726747E-2,1.7511463E-1,1.8796559E-1,7.732351E-2],"categories":[],"categories_nodes":[],"categories_segments":[],"categories_sizes":[],"default_left":[1,1,1,1,1,1,1,0,0,0,0,0,0,0,0],"id":59,"left_children":[1,3,5,7,9,11,13,-1,-1,-1,-1,-1,-1,-1,-1],"loss_changes":[1.6504669E-1,1.260829E-1,1.7955709E-1,9.56347E-2,8.795279E-2,1.13370776E-1,8.508968E-2,0E0,0E0,0E0,0E0,0E0,0E0,0E0,0E0],"parents":[2147483647,0,0,1,1,2,2,3,3,4,4,5,5,6,6],"right_children":[2,4,6,8,10,12,14,-1,-1,-1,-1,-1,-1,-1,-1],"split_conditions":[4.4289035E2,4.6819028E5,5.3941154E1,5.9156204E-3,5.3990566E1,9.1534805E-1,6.745481E2,2.998099E-3,4.8629376E-3,1.6726166E-3,3.344808E-3,2.918024E-3,5.253439E-3,5.6389673E-3,2.3197052E-3],"split_indices":[45,57,9,30,9,40,51,0,0,0,0,0,0,0,0],"split_type":[0,0,0,0,0,0,0,0,0,0,0,0,0,0,0],"sum_hessian":[6.81E2,4.73E2,2.08E2,3.24E2,1.49E2,1.47E2,6.1E1,2.97E2,2.7E1,1.11E2,3.8E1,1.25E2,2.2E1,5.3E1,8E0],"tree_param":{"num_deleted":"0","num_feature":"78","num_nodes":"15","size_leaf_vector":"0"}},{"base_weights":[1.0322802E-1,1.16213076E-1,8.228595E-2,1.0556235E-1,1.471002E-1,6.4567074E-2,1.1266115E-1,9.44715E-2,1.3815029E-1,1.3062046E-1,2.0615251E-1,5.7340816E-2,1.6770555E-1,1.023928E-1,2.2818014E-1],"categories":[],"categories_nodes":[],"categories_segments":[],"categories_sizes":[],"default_left":[1,1,1,1,1,1,1,0,0,0,0,0,0,0,0],"id":60,"left_children":[1,3,5,7,9,11,13,-1,-1,-1,-1,-1,-1,-1,-1],"loss_changes":[1.8899393E-1,1.4112806E-1,1.4316499E-1,1.1529565E-1,1.0704827E-1,1.2521136E-1,1.1624658E-1,0E0,0E0,0E0,0E0,0E0,0E0,0E0,0E0],"parents":[2147483647,0,0,1,1,2,2,3,3,4,4,5,5,6,6],"right_children":[2,4,6,8,10,12,14,-1,-1,-1,-1,-1,-1,-1,-1],"split_conditions":[4.6131372E5,2.4313769E5,4.0421686E2,1.9335E0,4.3352448E2,7.7375E2,2.078361E5,2.834145E-3,4.1445084E-3,3.918614E-3,6.184575E-3,1.7202244E-3,5.0311666E-3,3.071784E-3,6.845404E-3],"split_indices":[57,49,47,19,45,44,58,0,0,0,0,0,0,0,0],"split_type":[0,0,0,0,0,0,0,0,0,0,0,0,0,0,0],"sum_hessian":[6.95E2,4.29E2,2.66E2,3.19E2,1.1E2,1.68E2,9.8E1,2.38E2,8.1E1,8.6E1,2.4E1,1.57E2,1.1E1,9E1,8E0],"tree_param":{"num_deleted":"0","num_feature":"78","num_nodes":"15","size_leaf_vector":"0"}},{"base_weights":[9.094599E-2,1.7004184E-2,9.515581E-2,-3.5653822E-2,5.769446E-2,6.596278E-2,1.0556125E-1,-7.051065E-2,2.8250357E-2,4.002905E-2,1.3718882E-1,-5.465252E-3,7.5396664E-2,1.2036904E-1,8.622322E-2],"categories":[],"categories_nodes":[],"categories_segments":[],"categories_sizes":[],"default_left":[1,1,1,1,1,1,1,0,0,0,0,0,0,0,0],"id":61,"left_children":[1,3,5,7,9,11,13,-1,-1,-1,-1,-1,-1,-1,-1],"loss_changes":[2.253685E-1,8.356408E-2,2.0807981E-1,3.7867445E-2,3.0894622E-2,1.21291935E-1,1.446085E-1,0E0,0E0,0E0,0E0,0E0,0E0,0E0,0E0],"parents":[2147483647,0,0,1,1,2,2,3,3,4,4,5,5,6,6],"right_children":[2,4,6,8,10,12,14,-1,-1,-1,-1,-1,-1,-1,-1],"split_conditions":[9.2956595E-2,5.3272877E1,2.4699817E0,5.299872E-3,2.977507E0,2.0035437E2,5.903896E2,-2.1153195E-3,8.475107E-4,1.2008714E-3,4.1156644E-3,-1.6395755E-4,2.2618999E-3,3.611071E-3,2.5866965E-3],"split_indices":[71,9,36,35,38,47,51,0,0,0,0,0,0,0,0],"split_type":[0,0,0,0,0,0,0,0,0,0,0,0,0,0,0],"sum_hessian":[7.24E2,3.9E1,6.85E2,1.7E1,2.2E1,1.8E2,5.05E2,1.1E1,6E0,1.8E1,4E0,2.1E1,1.59E2,2.86E2,2.19E2],"tree_param":{"num_deleted":"0","num_feature":"78","num_nodes":"15","size_leaf_vector":"0"}},{"base_weights":[9.982494E-2,1.1286401E-1,7.822438E-2,1.059784E-1,1.5721199E-1,-3.440288E-2,8.356639E-2,2.5430423E-1,1.04000725E-1,1.2258833E-1,2.0430018E-1,4.860437E-2,-6.2071964E-2,2.8659955E-2,9.2090674E-2],"categories":[],"categories_nodes":[],"categories_segments":[],"categories_sizes":[],"default_left":[1,1,1,1,1,1,1,0,0,0,0,0,0,0,0],"id":62,"left_children":[1,3,5,7,9,11,13,-1,-1,-1,-1,-1,-1,-1,-1],"loss_changes":[1.9828272E-1,1.3405418E-1,1.5943873E-1,1.11469746E-1,9.6191645E-2,2.7560815E-2,1.1841369E-1,0E0,0E0,0E0,0E0,0E0,0E0,0E0,0E0],"parents":[2147483647,0,0,1,1,2,2,3,3,4,4,5,5,6,6],"right_children":[2,4,6,8,10,12,14,-1,-1,-1,-1,-1,-1,-1,-1],"split_conditions":[5.8899615E2,1.7138921E3,5.2237835E1,1.5249544E5,1.05E1,1.5E0,1.6831722E3,7.629127E-3,3.1200217E-3,3.67765E-3,6.1290055E-3,1.458131E-3,-1.8621589E-3,8.5979863E-4,2.7627202E-3],"split_indices":[51,24,9,49,72,4,24,0,0,0,0,0,0,0,0],"split_type":[0,0,0,0,0,0,0,0,0,0,0,0,0,0,0],"sum_hessian":[7.04E2,4.39E2,2.65E2,3.8E2,5.9E1,1.2E1,2.53E2,5E0,3.75E2,3.4E1,2.5E1,3E0,9E0,3.4E1,2.19E2],"tree_param":{"num_deleted":"0","num_feature":"78","num_nodes":"15","size_leaf_vector":"0"}},{"base_weights":[9.393167E-2,1.0500513E-1,6.389998E-2,1.061117E-2,1.0859929E-1,5.9272908E-2,2.0656802E-1,5.4915447E-2,-3.8615804E-2,7.1548454E-2,1.1494838E-1,1.5042835E-1,5.4064024E-2,1.5702991E-1,2.5610614E-1],"categories":[],"categories_nodes":[],"categories_segments":[],"categories_sizes":[],"default_left":[1,1,1,1,1,1,1,0,0,0,0,0,0,0,0],"id":63,"left_children":[1,3,5,7,9,11,13,-1,-1,-1,-1,-1,-1,-1,-1],"loss_changes":[2.357812E-1,1.7574024E-1,1.2608588E-1,4.143834E-2,1.17384434E-1,8.784133E-2,1.4724135E-2,0E0,0E0,0E0,0E0,0E0,0E0,0E0,0E0],"parents":[2147483647,0,0,1,1,2,2,3,3,4,4,5,5,6,6],"right_children":[2,4,6,8,10,12,14,-1,-1,-1,-1,-1,-1,-1,-1],"split_conditions":[4.76148E5,2.327495E2,5.2265784E2,4.5971024E-1,2.0729675E0,3.404032E5,2.15E1,1.6474634E-3,-1.1584741E-3,2.1464536E-3,3.4484512E-3,4.5128507E-3,1.6219207E-3,4.7108973E-3,7.683184E-3],"split_indices":[57,45,45,69,38,48,4,0,0,0,0,0,0,0,0],"split_type":[0,0,0,0,0,0,0,0,0,0,0,0,0,0,0],"sum_hessian":[7.09E2,5.18E2,1.91E2,1.9E1,4.99E2,1.85E2,6E0,1E1,9E0,7.3E1,4.26E2,1E1,1.75E2,3E0,3E0],"tree_param":{"num_deleted":"0","num_feature":"78","num_nodes":"15","size_leaf_vector":"0"}},{"base_weights":[9.0239584E-2,8.7601624E-2,1.6520166E-1,7.63667E-3,8.964584E-2,1.3067414E-1,2.6878422E-1,-2.091352E-3,1.6328502E-1,8.6746454E-2,1.5560687E-1,9.2300825E-2,2.6498073E-1,3.3618638E-1,2.0138209E-1],"categories":[],"categories_nodes":[],"categories_segments":[],"categories_sizes":[],"default_left":[1,1,1,1,1,1,1,0,0,0,0,0,0,0,0],"id":64,"left_children":[1,3,5,7,9,11,13,-1,-1,-1,-1,-1,-1,-1,-1],"loss_changes":[1.3960934E-1,1.11483574E-1,8.58348E-2,2.5740558E-2,1.2717915E-1,9.276819E-2,2.7258277E-2,0E0,0E0,0E0,0E0,0E0,0E0,0E0,0E0],"parents":[2147483647,0,0,1,1,2,2,3,3,4,4,5,5,6,6],"right_children":[2,4,6,8,10,12,14,-1,-1,-1,-1,-1,-1,-1,-1],"split_conditions":[6.1043454E-3,1.7544409E2,2.0999134E0,9.06E5,1.6310881E3,1.6808053E5,3.0160737E-3,-6.274055E-5,4.8985505E-3,2.6023935E-3,4.668206E-3,2.7690246E-3,7.949422E-3,1.0085591E-2,6.0414625E-3],"split_indices":[30,47,37,0,25,58,34,0,0,0,0,0,0,0,0],"split_type":[0,0,0,0,0,0,0,0,0,0,0,0,0,0,0],"sum_hessian":[7.06E2,6.82E2,2.4E1,1.7E1,6.65E2,1.8E1,6E0,1.6E1,1E0,6.37E2,2.8E1,1.4E1,4E0,3E0,3E0],"tree_param":{"num_deleted":"0","num_feature":"78","num_nodes":"15","size_leaf_vector":"0"}},{"base_weights":[9.015671E-2,5.2359346E-2,9.533358E-2,4.8676193E-2,3.543781E-1,8.596949E-2,1.21435985E-1,1.6387558E-1,4.276853E-2,4.3468392E-1,8.518586E-2,9.474263E-2,1.5489666E-1],"categories":[],"categories_nodes":[],"categories_segments":[],"categories_sizes":[],"default_left":[1,1,1,1,0,1,1,0,0,0,0,0,0],"id":65,"left_children":[1,3,5,7,-1,9,11,-1,-1,-1,-1,-1,-1],"loss_changes":[1.3481855E-1,9.2327714E-2,1.4812136E-1,5.5805847E-2,0E0,1.2187505E-1,1.4290857E-1,0E0,0E0,0E0,0E0,0E0,0E0],"parents":[2147483647,0,0,1,1,2,2,3,3,5,5,6,6],"right_children":[2,4,6,8,-1,10,12,-1,-1,-1,-1,-1,-1],"split_conditions":[2.0212364E0,6.00444E5,1.388221E3,4.4978742E4,1.0631343E-2,6.065E5,2.5174048E2,4.9162675E-3,1.2830559E-3,1.3040517E-2,2.555576E-3,2.842279E-3,4.6468996E-3],"split_indices":[38,57,25,60,0,0,52,0,0,0,0,0,0],"split_type":[0,0,0,0,0,0,0,0,0,0,0,0,0],"sum_hessian":[6.89E2,8.3E1,6.06E2,8.2E1,1E0,4.46E2,1.6E2,4E0,7.8E1,1E0,4.45E2,8.9E1,7.1E1],"tree_param":{"num_deleted":"0","num_feature":"78","num_nodes":"13","size_leaf_vector":"0"}},{"base_weights":[8.379726E-2,9.461562E-2,4.9931083E-2,7.553716E-2,1.2313886E-1,4.7576934E-2,4.265952E-1,7.252147E-2,1.8636385E-1,1.0260164E-1,1.6742225E-1,-4.4874083E-2,5.3740334E-2],"categories":[],"categories_nodes":[],"categories_segments":[],"categories_sizes":[],"default_left":[1,1,1,1,1,1,0,0,0,0,0,0,0],"id":66,"left_children":[1,3,5,7,9,11,-1,-1,-1,-1,-1,-1,-1],"loss_changes":[2.4364042E-1,2.7426624E-1,1.4276257E-1,1.0093415E-1,1.8371034E-1,9.117004E-2,0E0,0E0,0E0,0E0,0E0,0E0,0E0],"parents":[2147483647,0,0,1,1,2,2,3,3,4,4,5,5],"right_children":[2,4,6,8,10,12,-1,-1,-1,-1,-1,-1,-1],"split_conditions":[5.5663875E5,2.737977E0,1.6982595E3,5.454356E5,1.15E1,5.2253773E1,1.2797856E-2,2.175644E-3,5.590915E-3,3.078049E-3,5.0226673E-3,-1.3462225E-3,1.61221E-3],"split_indices":[48,36,25,48,72,9,0,0,0,0,0,0,0],"split_type":[0,0,0,0,0,0,0,0,0,0,0,0,0],"sum_hessian":[6.65E2,5.04E2,1.61E2,3.02E2,2.02E2,1.6E2,1E0,2.94E2,8E0,1.38E2,6.4E1,1E1,1.5E2],"tree_param":{"num_deleted":"0","num_feature":"78","num_nodes":"13","size_leaf_vector":"0"}},{"base_weights":[7.750964E-2,8.389239E-2,5.0289117E-2,7.9707876E-2,1.6060838E-1,1.5690236E-1,3.805481E-2,6.702875E-2,9.721715E-2,1.09751604E-1,2.6232195E-1,5.2202154E-2,2.1506914E-1,6.0414016E-2,-1.5819628E-3],"categories":[],"categories_nodes":[],"categories_segments":[],"categories_sizes":[],"default_left":[1,1,1,0,1,1,1,0,0,0,0,0,0,0,0],"id":67,"left_children":[1,3,5,7,9,11,13,-1,-1,-1,-1,-1,-1,-1,-1],"loss_changes":[1.24399185E-1,1.861906E-1,1.773901E-1,1.2210131E-1,1.5518469E-1,8.526102E-2,1.08122125E-1,0E0,0E0,0E0,0E0,0E0,0E0,0E0,0E0],"parents":[2147483647,0,0,1,1,2,2,3,3,4,4,5,5,6,6],"right_children":[2,4,6,8,10,12,14,-1,-1,-1,-1,-1,-1,-1,-1],"split_conditions":[6.54864E5,8.905E5,1.5875142E0,4.442951E-1,1.25E1,1.5192307E1,4.0528333E-1,2.0108626E-3,2.9165144E-3,3.292548E-3,7.869658E-3,1.5660645E-3,6.4520743E-3,1.8124204E-3,-4.745888E-5],"split_indices":[50,0,19,67,73,76,70,0,0,0,0,0,0,0,0],"split_type":[0,0,0,0,0,0,0,0,0,0,0,0,0,0,0],"sum_hessian":[7.16E2,5.8E2,1.36E2,5.5E2,3E1,1.4E1,1.22E2,3.19E2,2.31E2,2E1,1E1,5E0,9E0,7.8E1,4.4E1],"tree_param":{"num_deleted":"0","num_feature":"78","num_nodes":"15","size_leaf_vector":"0"}},{"base_weights":[8.587621E-2,1.9617803E-2,8.9399554E-2,1.4291981E-1,1.2364745E-2,1.0310401E-1,7.481768E-2,1.0500592E-1,1.808337E-1,-3.5660848E-2,3.8560525E-2,9.9920206E-2,1.9251579E-1,6.7710504E-2,1.383515E-1],"categories":[],"categories_nodes":[],"categories_segments":[],"categories_sizes":[],"default_left":[1,1,1,1,1,1,1,0,0,0,0,0,0,0,0],"id":68,"left_children":[1,3,5,7,9,11,13,-1,-1,-1,-1,-1,-1,-1,-1],"loss_changes":[1.6645098E-1,3.2195404E-2,1.3528919E-1,2.8749257E-3,4.2774305E-2,9.93495E-2,1.4810717E-1,0E0,0E0,0E0,0E0,0E0,0E0,0E0,0E0],"parents":[2147483647,0,0,1,1,2,2,3,3,4,4,5,5,6,6],"right_children":[2,4,6,8,10,12,14,-1,-1,-1,-1,-1,-1,-1,-1],"split_conditions":[2.3851988E2,3.7388522E-3,6.7232144E-1,8.1E5,3.3287848E-3,3.1891394E1,3.1683846E0,3.1501774E-3,5.425011E-3,-1.0698254E-3,1.1568157E-3,2.997606E-3,5.7754735E-3,2.0313151E-3,4.1505448E-3],"split_indices":[45,35,14,0,32,75,36,0,0,0,0,0,0,0,0],"split_type":[0,0,0,0,0,0,0,0,0,0,0,0,0,0,0],"sum_hessian":[7.13E2,3.6E1,6.77E2,2E0,3.4E1,3.49E2,3.28E2,1E0,1E0,1.2E1,2.2E1,3.37E2,1.2E1,2.95E2,3.3E1],"tree_param":{"num_deleted":"0","num_feature":"78","num_nodes":"15","size_leaf_vector":"0"}},{"base_weights":[7.938182E-2,9.2184946E-2,5.8947045E-2,7.42018E-2,1.1802898E-1,-1.0374814E-2,6.614932E-2,1.5475815E-2,7.983306E-2,1.06656134E-1,1.9709742E-1,2.2096232E-2,-8.923306E-2,-4.4325233E-2,7.273725E-2],"categories":[],"categories_nodes":[],"categories_segments":[],"categories_sizes":[],"default_left":[1,1,1,1,1,1,1,0,0,0,0,0,0,0,0],"id":69,"left_children":[1,3,5,7,9,11,13,-1,-1,-1,-1,-1,-1,-1,-1],"loss_changes":[1.7319822E-1,1.891563E-1,1.2731504E-1,7.936835E-2,1.50172E-1,6.1454635E-2,1.6812158E-1,0E0,0E0,0E0,0E0,0E0,0E0,0E0,0E0],"parents":[2147483647,0,0,1,1,2,2,3,3,4,4,5,5,6,6],"right_children":[2,4,6,8,10,12,14,-1,-1,-1,-1,-1,-1,-1,-1],"split_conditions":[5.903896E2,4.0847284E2,2.577977E2,2.1898158E0,5.0923175E5,1.3422779E0,5.2173077E1,4.6427443E-4,2.3949917E-3,3.199684E-3,5.9129223E-3,6.6288695E-4,-2.6769917E-3,-1.3297569E-3,2.1821174E-3],"split_indices":[51,45,45,36,48,21,9,0,0,0,0,0,0,0,0],"split_type":[0,0,0,0,0,0,0,0,0,0,0,0,0,0,0],"sum_hessian":[6.62E2,4.07E2,2.55E2,2.4E2,1.67E2,2.4E1,2.31E2,2.1E1,2.19E2,1.46E2,2.1E1,1.7E1,7E0,1.3E1,2.18E2],"tree_param":{"num_deleted":"0","num_feature":"78","num_nodes":"15","size_leaf_vector":"0"}},{"base_weights":[7.409942E-2,5.2314416E-2,8.3875895E-2,4.8117183E-2,1.5024982E-1,4.28543E-2,9.086038E-2,-6.6254307E-3,5.5514835E-2,1.9305737E-1,4.233718E-4,-5.341633E-2,5.1740825E-2,6.5191776E-2,1.0369469E-1],"categories":[],"categories_nodes":[],"categories_segments":[],"categories_sizes":[],"default_left":[1,1,1,1,1,1,1,0,0,0,0,0,0,0,0],"id":70,"left_children":[1,3,5,7,9,11,13,-1,-1,-1,-1,-1,-1,-1,-1],"loss_changes":[1.5057707E-1,9.002161E-2,1.3981938E-1,8.504295E-2,5.7723343E-2,6.0741276E-2,1.3737607E-1,0E0,0E0,0E0,0E0,0E0,0E0,0E0,0E0],"parents":[2147483647,0,0,1,1,2,2,3,3,4,4,5,5,6,6],"right_children":[2,4,6,8,10,12,14,-1,-1,-1,-1,-1,-1,-1,-1],"split_conditions":[2.1799155E2,2.8372456E5,4.352819E-3,2.376263E0,5.535012E-1,5.65225E-1,9.5E0,-1.9876292E-4,1.665445E-3,5.791721E-3,1.27011535E-5,-1.6024899E-3,1.5522247E-3,1.9557532E-3,3.1108407E-3],"split_indices":[46,49,35,36,71,64,72,0,0,0,0,0,0,0,0],"split_type":[0,0,0,0,0,0,0,0,0,0,0,0,0,0,0],"sum_hessian":[7.07E2,2.19E2,4.88E2,2.1E2,9E0,7.1E1,4.17E2,2.5E1,1.85E2,7E0,2E0,6E0,6.5E1,1.39E2,2.78E2],"tree_param":{"num_deleted":"0","num_feature":"78","num_nodes":"15","size_leaf_vector":"0"}},{"base_weights":[7.6743E-2,5.170358E-2,8.841345E-2,4.3586086E-2,1.1876115E-1,5.7215996E-2,9.795095E-2,5.790487E-2,9.323285E-3,4.3808337E-2,1.874679E-1,1.8267144E-3,7.1552046E-2,9.603351E-2,3.1973514E-1],"categories":[],"categories_nodes":[],"categories_segments":[],"categories_sizes":[],"default_left":[1,1,1,1,1,1,1,0,0,0,0,0,0,0,0],"id":71,"left_children":[1,3,5,7,9,11,13,-1,-1,-1,-1,-1,-1,-1,-1],"loss_changes":[1.9578838E-1,1.15944326E-1,1.3597846E-1,9.32143E-2,1.1844456E-1,8.496478E-2,1.4884043E-1,0E0,0E0,0E0,0E0,0E0,0E0,0E0,0E0],"parents":[2147483647,0,0,1,1,2,2,3,3,4,4,5,5,6,6],"right_children":[2,4,6,8,10,12,14,-1,-1,-1,-1,-1,-1,-1,-1],"split_conditions":[2.559331E0,2.719563E5,2.0506252E2,5.61012E5,2.1163197E0,1.5108696E1,3.405921E0,1.737146E-3,2.7969855E-4,1.31425E-3,5.624037E-3,5.480143E-5,2.1465614E-3,2.8810054E-3,9.592054E-3],"split_indices":[36,49,46,50,38,76,36,0,0,0,0,0,0,0,0],"split_type":[0,0,0,0,0,0,0,0,0,0,0,0,0,0,0],"sum_hessian":[6.7E2,2.13E2,4.57E2,1.9E2,2.3E1,1.07E2,3.5E2,1.34E2,5.6E1,1.1E1,1.2E1,2.2E1,8.5E1,3.47E2,3E0],"tree_param":{"num_deleted":"0","num_feature":"78","num_nodes":"15","size_leaf_vector":"0"}},{"base_weights":[7.0054E-2,6.107255E-2,9.2138834E-2,1.9130891E-2,6.6889964E-2,8.026781E-2,1.570585E-1,2.1384096E-1,1.2640555E-2,7.289771E-2,2.4943015E-2,2.2498727E-1,7.242157E-2,1.8005933E-1,-6.528268E-2],"categories":[],"categories_nodes":[],"categories_segments":[],"categories_sizes":[],"default_left":[1,1,1,1,1,1,0,0,0,0,0,0,0,0,0],"id":72,"left_children":[1,3,5,7,9,11,13,-1,-1,-1,-1,-1,-1,-1,-1],"loss_changes":[1.4202166E-1,1.24192E-1,1.5952718E-1,7.835149E-2,1.1264682E-1,1.9871306E-1,1.636489E-1,0E0,0E0,0E0,0E0,0E0,0E0,0E0,0E0],"parents":[2147483647,0,0,1,1,2,2,3,3,4,4,5,5,6,6],"right_children":[2,4,6,8,10,12,14,-1,-1,-1,-1,-1,-1,-1,-1],"split_conditions":[2.8997838E0,1.378193E0,2.8352283E2,8.222009E4,1.156707E3,7.545E5,5.7478726E-1,6.415229E-3,3.7921665E-4,2.1869312E-3,7.4829045E-4,6.749618E-3,2.172647E-3,5.40178E-3,-1.9584803E-3],"split_indices":[36,37,46,58,27,0,67,0,0,0,0,0,0,0,0],"split_type":[0,0,0,0,0,0,0,0,0,0,0,0,0,0,0],"sum_hessian":[7.16E2,5.09E2,2.07E2,6.2E1,4.47E2,1.75E2,3.2E1,2E0,6E1,3.91E2,5.6E1,9E0,1.66E2,2.9E1,3E0],"tree_param":{"num_deleted":"0","num_feature":"78","num_nodes":"15","size_leaf_vector":"0"}},{"base_weights":[7.198801E-2,5.234833E-2,9.0469174E-2,2.318074E-3,5.932534E-2,7.2045885E-2,1.2135934E-1,-9.304976E-3,2.2896755E-1,1.8165718E-1,5.677676E-2,6.2459383E-2,1.6934893E-1,1.357877E-1,5.5830594E-2],"categories":[],"categories_nodes":[],"categories_segments":[],"categories_sizes":[],"default_left":[1,1,1,1,1,1,1,0,0,0,0,0,0,0,0],"id":73,"left_children":[1,3,5,7,9,11,13,-1,-1,-1,-1,-1,-1,-1,-1],"loss_changes":[2.5080824E-1,1.1693555E-1,2.0259905E-1,1.0800868E-1,9.1661215E-2,2.0801353E-1,1.257478E-1,0E0,0E0,0E0,0E0,0E0,0E0,0E0,0E0],"parents":[2147483647,0,0,1,1,2,2,3,3,4,4,5,5,6,6],"right_children":[2,4,6,8,10,12,14,-1,-1,-1,-1,-1,-1,-1,-1],"split_conditions":[1.2628273E3,5.2565716E1,4.3135028E2,4.136024E-3,2.5666506E5,5.929426E-3,6.6276E5,-2.7914927E-4,6.8690265E-3,5.449715E-3,1.7033027E-3,1.8737814E-3,5.0804676E-3,4.0736306E-3,1.6749178E-3],"split_indices":[25,9,45,34,48,30,50,0,0,0,0,0,0,0,0],"split_type":[0,0,0,0,0,0,0,0,0,0,0,0,0,0,0],"sum_hessian":[6.91E2,3.35E2,3.56E2,4.1E1,2.94E2,2.23E2,1.33E2,3.9E1,2E0,6E0,2.88E2,2.03E2,2E1,1.09E2,2.4E1],"tree_param":{"num_deleted":"0","num_feature":"78","num_nodes":"15","size_leaf_vector":"0"}},{"base_weights":[6.712731E-2,7.063819E-2,1.980962E-3,6.546982E-2,1.0608718E-1,9.415156E-2,-3.3469267E-2,2.616053E-2,7.006343E-2,7.0884265E-2,1.4047141E-1,2.4883658E-1,5.54803E-2,4.972058E-3,-7.831748E-2],"categories":[],"categories_nodes":[],"categories_segments":[],"categories_sizes":[],"default_left":[1,1,1,1,1,1,1,0,0,0,0,0,0,0,0],"id":74,"left_children":[1,3,5,7,9,11,13,-1,-1,-1,-1,-1,-1,-1,-1],"loss_changes":[1.610198E-1,1.2238693E-1,1.17628865E-1,1.0527325E-1,1.0288614E-1,5.9818633E-2,4.482464E-2,0E0,0E0,0E0,0E0,0E0,0E0,0E0,0E0],"parents":[2147483647,0,0,1,1,2,2,3,3,4,4,5,5,6,6],"right_children":[2,4,6,8,10,12,14,-1,-1,-1,-1,-1,-1,-1,-1],"split_conditions":[1.7236687E0,4.6158337E2,1.1180607E0,1.5686866E0,2.8248164E-3,5.7147217E2,2.2788462E1,7.8481593E-4,2.1019028E-3,2.126528E-3,4.2141424E-3,7.465097E-3,1.664409E-3,1.4916173E-4,-2.3495243E-3],"split_indices":[70,47,12,39,34,44,75,0,0,0,0,0,0,0,0],"split_type":[0,0,0,0,0,0,0,0,0,0,0,0,0,0,0],"sum_hessian":[7.04E2,6.68E2,3.6E1,5.83E2,8.5E1,1E1,2.6E1,6.1E1,5.22E2,4.2E1,4.3E1,2E0,8E0,1.4E1,1.2E1],"tree_param":{"num_deleted":"0","num_feature":"78","num_nodes":"15","size_leaf_vector":"0"}},{"base_weights":[6.469098E-2,6.768231E-2,-1.4004199E-2,1.3086148E-2,7.2456226E-2,1.7765565E-2,-8.5486166E-2,3.0058715E-2,-5.4804124E-2,6.4898856E-2,9.442421E-2,5.5201475E-2,-4.1062295E-2,-6.235819E-2,-1.24032795E-1],"categories":[],"categories_nodes":[],"categories_segments":[],"categories_sizes":[],"default_left":[1,1,1,1,1,1,1,0,0,0,0,0,0,0,0],"id":75,"left_children":[1,3,5,7,9,11,13,-1,-1,-1,-1,-1,-1,-1,-1],"loss_changes":[1.6713667E-1,1.7827582E-1,5.90451E-2,6.3374974E-2,1.0442662E-1,3.9640944E-2,7.132042E-3,0E0,0E0,0E0,0E0,0E0,0E0,0E0,0E0],"parents":[2147483647,0,0,1,1,2,2,3,3,4,4,5,5,6,6],"right_children":[2,4,6,8,10,12,14,-1,-1,-1,-1,-1,-1,-1,-1],"split_conditions":[1.7236687E0,3.2409965E-3,1.6945E3,3.29544E5,5.3980583E1,2.7629123E2,1.90425E3,9.0176146E-4,-1.6441237E-3,1.9469656E-3,2.8327263E-3,1.6560442E-3,-1.2318689E-3,-1.8707457E-3,-3.7209839E-3],"split_indices":[70,31,26,62,9,46,26,0,0,0,0,0,0,0,0],"split_type":[0,0,0,0,0,0,0,0,0,0,0,0,0,0,0],"sum_hessian":[7.1E2,6.84E2,2.6E1,5.5E1,6.29E2,1.8E1,8E0,4.4E1,1.1E1,4.68E2,1.61E2,1.1E1,7E0,5E0,3E0],"tree_param":{"num_deleted":"0","num_feature":"78","num_nodes":"15","size_leaf_vector":"0"}},{"base_weights":[6.1279017E-2,6.751492E-2,2.6209239E-2,5.183189E-2,8.453153E-2,1.1535142E-1,1.6203484E-2,1.9559658E-1,4.9076017E-2,7.730904E-2,1.5314521E-1,-1.4701378E-1,1.4158794E-1,-9.521238E-2,2.3469735E-2],"categories":[],"categories_nodes":[],"categories_segments":[],"categories_sizes":[],"default_left":[1,1,1,0,1,1,1,0,0,0,0,0,0,0,0],"id":76,"left_children":[1,3,5,7,9,11,13,-1,-1,-1,-1,-1,-1,-1,-1],"loss_changes":[1.5789509E-1,1.6359282E-1,9.7220905E-2,1.2638688E-1,1.4569521E-1,7.571904E-2,7.933842E-2,0E0,0E0,0E0,0E0,0E0,0E0,0E0,0E0],"parents":[2147483647,0,0,1,1,2,2,3,3,4,4,5,5,6,6],"right_children":[2,4,6,8,10,12,14,-1,-1,-1,-1,-1,-1,-1,-1],"split_conditions":[6.487189E2,2.4563956E0,1.30662805E5,1.9511157E-1,4.74775E2,5.284327E1,5.2030113E1,5.867897E-3,1.4722805E-3,2.3192712E-3,4.5943563E-3,-4.4104136E-3,4.2476384E-3,-2.8563712E-3,7.0409203E-4],"split_indices":[51,38,49,67,47,9,9,0,0,0,0,0,0,0,0],"split_type":[0,0,0,0,0,0,0,0,0,0,0,0,0,0,0],"sum_hessian":[7.22E2,6.13E2,1.09E2,3.19E2,2.94E2,1.1E1,9.8E1,6E0,3.13E2,2.66E2,2.8E1,1E0,1E1,6E0,9.2E1],"tree_param":{"num_deleted":"0","num_feature":"78","num_nodes":"15","size_leaf_vector":"0"}},{"base_weights":[6.038561E-2,5.607361E-2,1.0625634E-1,-1.4644809E-3,5.9429176E-2,-1.3760236E-1,1.1496559E-1,-1.8382726E-2,1.2542236E-1,5.4152403E-2,9.939297E-2,-9.406865E-2,-1.8113607E-1,9.944556E-2,1.9601463E-1],"categories":[],"categories_nodes":[],"categories_segments":[],"categories_sizes":[],"default_left":[1,1,1,1,1,1,1,0,0,0,0,0,0,0,0],"id":77,"left_children":[1,3,5,7,9,11,13,-1,-1,-1,-1,-1,-1,-1,-1],"loss_changes":[1.335113E-1,1.1912608E-1,1.2318176E-1,7.298789E-2,1.22942924E-1,3.7903674E-3,7.0441425E-2,0E0,0E0,0E0,0E0,0E0,0E0,0E0,0E0],"parents":[2147483647,0,0,1,1,2,2,3,3,4,4,5,5,6,6],"right_children":[2,4,6,8,10,12,14,-1,-1,-1,-1,-1,-1,-1,-1],"split_conditions":[3.3476093E2,9.2956595E-2,1.6858403E5,6.312954E-3,8.725E5,7.92E5,1.8874645E1,-5.514818E-4,3.7626706E-3,1.6245721E-3,2.9817892E-3,-2.8220594E-3,-5.434082E-3,2.9833666E-3,5.8804387E-3],"split_indices":[46,71,49,35,0,0,76,0,0,0,0,0,0,0,0],"split_type":[0,0,0,0,0,0,0,0,0,0,0,0,0,0,0],"sum_hessian":[6.75E2,6.17E2,5.8E1,3.4E1,5.83E2,2E0,5.6E1,3E1,4E0,5.15E2,6.8E1,1E0,1E0,4.7E1,9E0],"tree_param":{"num_deleted":"0","num_feature":"78","num_nodes":"15","size_leaf_vector":"0"}},{"base_weights":[6.1360992E-2,5.305139E-2,8.555929E-2,5.834925E-2,1.0758262E-2,9.421024E-2,-4.194241E-3,5.9951145E-2,-4.7833342E-2,1.4989209E-1,3.3046645E-3,5.737454E-2,1.0919425E-1,4.8449993E-2,-7.1879685E-2],"categories":[],"categories_nodes":[],"categories_segments":[],"categories_sizes":[],"default_left":[1,1,1,1,1,1,1,0,0,0,0,0,0,0,0],"id":78,"left_children":[1,3,5,7,9,11,13,-1,-1,-1,-1,-1,-1,-1,-1],"loss_changes":[1.4316773E-1,1.1875343E-1,1.4131439E-1,8.011389E-2,6.1185807E-2,9.162319E-2,5.7011973E-2,0E0,0E0,0E0,0E0,0E0,0E0,0E0,0E0],"parents":[2147483647,0,0,1,1,2,2,3,3,4,4,5,5,6,6],"right_children":[2,4,6,8,10,12,14,-1,-1,-1,-1,-1,-1,-1,-1],"split_conditions":[1.3851235E3,3.494E5,5.973305E5,8.1004846E2,3.893736E5,5.999637E-1,2.792843E5,1.7985343E-3,-1.4350002E-3,4.4967625E-3,9.9139936E-5,1.7212362E-3,3.2758275E-3,1.4534998E-3,-2.1563906E-3],"split_indices":[25,60,48,28,57,63,60,0,0,0,0,0,0,0,0],"split_type":[0,0,0,0,0,0,0,0,0,0,0,0,0,0,0],"sum_hessian":[7.12E2,5.3E2,1.82E2,4.71E2,5.9E1,1.66E2,1.6E1,4.64E2,7E0,3E0,5.6E1,4.8E1,1.18E2,9E0,7E0],"tree_param":{"num_deleted":"0","num_feature":"78","num_nodes":"15","size_leaf_vector":"0"}},{"base_weights":[4.9991053E-2,3.9030407E-2,6.970217E-2,3.282221E-2,8.708185E-2,5.097925E-2,1.03882395E-1,3.0104259E-2,1.615851E-1,3.248684E-2,1.1779153E-1,2.1119747E-2,7.263559E-2,3.742553E-1,9.744495E-2],"categories":[],"categories_nodes":[],"categories_segments":[],"categories_sizes":[],"default_left":[1,1,1,1,1,1,1,0,0,0,0,0,0,0,0],"id":79,"left_children":[1,3,5,7,9,11,13,-1,-1,-1,-1,-1,-1,-1,-1],"loss_changes":[1.4691174E-1,1.3036275E-1,1.5550876E-1,1.354388E-1,8.382979E-2,1.0152367E-1,1.4968407E-1,0E0,0E0,0E0,0E0,0E0,0E0,0E0,0E0],"parents":[2147483647,0,0,1,1,2,2,3,3,4,4,5,5,6,6],"right_children":[2,4,6,8,10,12,14,-1,-1,-1,-1,-1,-1,-1,-1],"split_conditions":[4.28016E2,3.5726211E-3,8.491384E-1,6.0814572E-3,1.6863678E1,4.801104E-3,3.3981133E-1,9.031278E-4,4.847553E-3,9.746052E-4,3.5337459E-3,6.335924E-4,2.1790676E-3,1.1227659E-2,2.9233485E-3],"split_indices":[45,34,40,31,55,35,63,0,0,0,0,0,0,0,0],"split_type":[0,0,0,0,0,0,0,0,0,0,0,0,0,0,0],"sum_hessian":[6.8E2,4.37E2,2.43E2,3.87E2,5E1,1.57E2,8.6E1,3.79E2,8E0,1.8E1,3.2E1,6.6E1,9.1E1,2E0,8.4E1],"tree_param":{"num_deleted":"0","num_feature":"78","num_nodes":"15","size_leaf_vector":"0"}},{"base_weights":[5.924575E-2,6.916969E-2,3.904502E-2,5.3857066E-2,9.535519E-2,4.473756E-2,-6.1997544E-2,6.221456E-2,2.0571183E-2,7.409444E-2,1.371307E-1,7.763088E-2,2.4553023E-2,-9.038909E-2,-5.2144527E-3],"categories":[],"categories_nodes":[],"categories_segments":[],"categories_sizes":[],"default_left":[1,1,1,1,1,1,1,0,0,0,0,0,0,0,0],"id":80,"left_children":[1,3,5,7,9,11,13,-1,-1,-1,-1,-1,-1,-1,-1],"loss_changes":[1.369214E-1,1.8364382E-1,1.2941745E-1,8.039594E-2,1.5010214E-1,1.4141843E-1,1.934592E-2,0E0,0E0,0E0,0E0,0E0,0E0,0E0,0E0],"parents":[2147483647,0,0,1,1,2,2,3,3,4,4,5,5,6,6],"right_children":[2,4,6,8,10,12,14,-1,-1,-1,-1,-1,-1,-1,-1],"split_conditions":[6.4625E2,2.7757325E0,8.200343E0,2.31108E5,1.15E1,1.2198669E1,1.5223835E1,1.8664368E-3,6.171355E-4,2.222833E-3,4.1139205E-3,2.3289262E-3,7.365907E-4,-2.7116726E-3,-1.5643358E-4],"split_indices":[53,36,10,62,72,55,55,0,0,0,0,0,0,0,0],"split_type":[0,0,0,0,0,0,0,0,0,0,0,0,0,0,0],"sum_hessian":[6.83E2,4.58E2,2.25E2,2.89E2,1.69E2,2.13E2,1.2E1,2.31E2,5.8E1,1.12E2,5.7E1,8.1E1,1.32E2,8E0,4E0],"tree_param":{"num_deleted":"0","num_feature":"78","num_nodes":"15","size_leaf_vector":"0"}},{"base_weights":[5.2253656E-2,4.3945152E-2,7.6709755E-2,3.4933023E-2,6.753941E-2,6.746631E-2,1.492708E-1,3.8630497E-2,-6.859618E-2,8.352391E-2,2.5979703E-2,2.3471794E-1,6.3093714E-2,8.238355E-2,1.8528701E-1],"categories":[],"categories_nodes":[],"categories_segments":[],"categories_sizes":[],"default_left":[1,1,1,1,1,1,1,0,0,0,0,0,0,0,0],"id":81,"left_children":[1,3,5,7,9,11,13,-1,-1,-1,-1,-1,-1,-1,-1],"loss_changes":[1.4182913E-1,1.10782504E-1,1.1871648E-1,1.4431417E-1,9.5660806E-2,1.1481774E-1,4.818052E-2,0E0,0E0,0E0,0E0,0E0,0E0,0E0,0E0],"parents":[2147483647,0,0,1,1,2,2,3,3,4,4,5,5,6,6],"right_children":[2,4,6,8,10,12,14,-1,-1,-1,-1,-1,-1,-1,-1],"split_conditions":[5.395227E1,1.90112E0,1.5017861E3,1.8865042E0,1.485768E0,4.5925E2,2.6377597E-1,1.1589149E-3,-2.0578853E-3,2.505717E-3,7.793911E-4,7.041538E-3,1.8928114E-3,2.4715064E-3,5.5586104E-3],"split_indices":[9,41,25,41,22,29,71,0,0,0,0,0,0,0,0],"split_type":[0,0,0,0,0,0,0,0,0,0,0,0,0,0,0],"sum_hessian":[6.98E2,5.21E2,1.77E2,3.77E2,1.44E2,1.57E2,2E1,3.64E2,1.3E1,1.04E2,4E1,4E0,1.53E2,7E0,1.3E1],"tree_param":{"num_deleted":"0","num_feature":"78","num_nodes":"15","size_leaf_vector":"0"}},{"base_weights":[5.011375E-2,6.204781E-2,3.1172149E-2,5.335699E-2,9.027228E-2,1.8183054E-2,6.438477E-2,8.87279E-2,4.1427977E-2,1.0310823E-1,-1.941676E-2,1.401267E-2,1.8249619E-1,2.9405056E-2,1.0835928E-1],"categories":[],"categories_nodes":[],"categories_segments":[],"categories_sizes":[],"default_left":[1,1,1,1,1,1,1,0,0,0,0,0,0,0,0],"id":82,"left_children":[1,3,5,7,9,11,13,-1,-1,-1,-1,-1,-1,-1,-1],"loss_changes":[1.6433847E-1,1.0940099E-1,1.2122393E-1,1.438815E-1,1.4783615E-1,1.3842028E-1,1.2151906E-1,0E0,0E0,0E0,0E0,0E0,0E0,0E0,0E0],"parents":[2147483647,0,0,1,1,2,2,3,3,4,4,5,5,6,6],"right_children":[2,4,6,8,10,12,14,-1,-1,-1,-1,-1,-1,-1,-1],